<?xml version="1.0"?>
<opencv_storage>
<cascade>
  <stageType>BOOST</stageType>
  <featureType>HAAR</featureType>
  <height>24</height>
  <width>24</width>
  <stageParams>
    <boostType>GAB</boostType>
    <minHitRate>9.9500000476837158e-01</minHitRate>
    <maxFalseAlarm>3.0000001192092896e-01</maxFalseAlarm>
    <weightTrimRate>9.4999999999999996e-01</weightTrimRate>
    <maxDepth>1</maxDepth>
    <maxWeakCount>100</maxWeakCount></stageParams>
  <featureParams>
    <maxCatCount>0</maxCatCount>
    <featSize>1</featSize>
    <mode>ALL</mode></featureParams>
  <stageNum>10</stageNum>
  <stages>
    <!-- stage 0 -->
    <_>
      <maxWeakCount>7</maxWeakCount>
      <stageThreshold>-1.4354051351547241e+00</stageThreshold>
      <weakClassifiers>
        <_>
          <internalNodes>
            0 -1 81 8.8804438710212708e-03</internalNodes>
          <leafValues>
            -7.0630818605422974e-01 8.2332158088684082e-01</leafValues></_>
        <_>
          <internalNodes>
            0 -1 74 3.1134556047618389e-03</internalNodes>
          <leafValues>
            -5.7804250717163086e-01 6.2320899963378906e-01</leafValues></_>
        <_>
          <internalNodes>
            0 -1 139 -1.2991838157176971e-01</internalNodes>
          <leafValues>
            -7.7497529983520508e-01 4.4009017944335938e-01</leafValues></_>
        <_>
          <internalNodes>
            0 -1 126 5.5635189637541771e-03</internalNodes>
          <leafValues>
            -5.7352340221405029e-01 5.0876021385192871e-01</leafValues></_>
        <_>
          <internalNodes>
            0 -1 194 -2.7395547367632389e-03</internalNodes>
          <leafValues>
            7.7022987604141235e-01 -3.2524782419204712e-01</leafValues></_>
        <_>
          <internalNodes>
            0 -1 32 -9.5251724123954773e-03</internalNodes>
          <leafValues>
            8.3112233877182007e-01 -2.0273630321025848e-01</leafValues></_>
        <_>
          <internalNodes>
            0 -1 70 -2.7955304831266403e-03</internalNodes>
          <leafValues>
            6.4314484596252441e-01 -2.8259208798408508e-01</leafValues></_></weakClassifiers></_>
    <!-- stage 1 -->
    <_>
      <maxWeakCount>17</maxWeakCount>
      <stageThreshold>-1.6873990297317505e+00</stageThreshold>
      <weakClassifiers>
        <_>
          <internalNodes>
            0 -1 137 9.8799066618084908e-03</internalNodes>
          <leafValues>
            -6.2018990516662598e-01 6.8336671590805054e-01</leafValues></_>
        <_>
          <internalNodes>
            0 -1 75 -3.9542097598314285e-02</internalNodes>
          <leafValues>
            7.1174585819244385e-01 -4.1711387038230896e-01</leafValues></_>
        <_>
          <internalNodes>
            0 -1 165 3.5907966084778309e-03</internalNodes>
          <leafValues>
            -3.1977480649948120e-01 5.2080756425857544e-01</leafValues></_>
        <_>
          <internalNodes>
            0 -1 163 4.5157462358474731e-02</internalNodes>
          <leafValues>
            2.6844134926795959e-01 -5.8101391792297363e-01</leafValues></_>
        <_>
          <internalNodes>
            0 -1 116 -1.7524005845189095e-02</internalNodes>
          <leafValues>
            5.8192789554595947e-01 -2.4626067280769348e-01</leafValues></_>
        <_>
          <internalNodes>
            0 -1 36 -3.3528008498251438e-03</internalNodes>
          <leafValues>
            4.2753958702087402e-01 -2.6519951224327087e-01</leafValues></_>
        <_>
          <internalNodes>
            0 -1 57 -1.0279556736350060e-02</internalNodes>
          <leafValues>
            7.4522620439529419e-01 -1.8198512494564056e-01</leafValues></_>
        <_>
          <internalNodes>
            0 -1 77 2.7374816127121449e-03</internalNodes>
          <leafValues>
            -2.4152125418186188e-01 4.5587360858917236e-01</leafValues></_>
        <_>
          <internalNodes>
            0 -1 243 -5.1791900768876076e-03</internalNodes>
          <leafValues>
            5.9319174289703369e-01 -1.6670837998390198e-01</leafValues></_>
        <_>
          <internalNodes>
            0 -1 125 -4.8424050211906433e-02</internalNodes>
          <leafValues>
            -5.4187607765197754e-01 2.1370273828506470e-01</leafValues></_>
        <_>
          <internalNodes>
            0 -1 189 4.7689080238342285e-03</internalNodes>
          <leafValues>
            -3.0676698684692383e-01 3.4002500772476196e-01</leafValues></_>
        <_>
          <internalNodes>
            0 -1 104 1.6757750418037176e-03</internalNodes>
          <leafValues>
            -1.8946599960327148e-01 5.4941815137863159e-01</leafValues></_>
        <_>
          <internalNodes>
            0 -1 222 1.8397358944639564e-03</internalNodes>
          <leafValues>
            -1.6486345231533051e-01 4.7380337119102478e-01</leafValues></_>
        <_>
          <internalNodes>
            0 -1 149 -7.1819983422756195e-03</internalNodes>
          <leafValues>
            5.7195866107940674e-01 -1.3210341334342957e-01</leafValues></_>
        <_>
          <internalNodes>
            0 -1 138 6.2319654971361160e-03</internalNodes>
          <leafValues>
            -9.2039301991462708e-02 8.3425426483154297e-01</leafValues></_>
        <_>
          <internalNodes>
            0 -1 275 -2.6537398807704449e-03</internalNodes>
          <leafValues>
            2.7985683083534241e-01 -2.9254043102264404e-01</leafValues></_>
        <_>
          <internalNodes>
            0 -1 63 6.8174041807651520e-03</internalNodes>
          <leafValues>
            -1.4301671087741852e-01 5.7566463947296143e-01</leafValues></_></weakClassifiers></_>
    <!-- stage 2 -->
    <_>
      <maxWeakCount>22</maxWeakCount>
      <stageThreshold>-1.3491283655166626e+00</stageThreshold>
      <weakClassifiers>
        <_>
          <internalNodes>
            0 -1 177 -3.7572897970676422e-02</internalNodes>
          <leafValues>
            2.8648647665977478e-01 -6.3181817531585693e-01</leafValues></_>
        <_>
          <internalNodes>
            0 -1 209 -4.2467772960662842e-02</internalNodes>
          <leafValues>
            -8.0943030118942261e-01 1.5338209271430969e-01</leafValues></_>
        <_>
          <internalNodes>
            0 -1 123 6.2516164034605026e-03</internalNodes>
          <leafValues>
            -4.0149343013763428e-01 4.0416893362998962e-01</leafValues></_>
        <_>
          <internalNodes>
            0 -1 109 5.4263584315776825e-03</internalNodes>
          <leafValues>
            -3.9927047491073608e-01 3.6075720191001892e-01</leafValues></_>
        <_>
          <internalNodes>
            0 -1 47 -6.5272995270788670e-03</internalNodes>
          <leafValues>
            -8.4503614902496338e-01 1.6623233258724213e-01</leafValues></_>
        <_>
          <internalNodes>
            0 -1 53 2.6921711396425962e-03</internalNodes>
          <leafValues>
            -4.0937641263008118e-01 2.3723295331001282e-01</leafValues></_>
        <_>
          <internalNodes>
            0 -1 270 1.0655151680111885e-02</internalNodes>
          <leafValues>
            1.9970260560512543e-01 -4.4568365812301636e-01</leafValues></_>
        <_>
          <internalNodes>
            0 -1 248 9.5492647960782051e-03</internalNodes>
          <leafValues>
            -2.1256335079669952e-01 4.2124742269515991e-01</leafValues></_>
        <_>
          <internalNodes>
            0 -1 289 -3.4739570692181587e-03</internalNodes>
          <leafValues>
            -6.8231397867202759e-01 1.3378491997718811e-01</leafValues></_>
        <_>
          <internalNodes>
            0 -1 127 6.5312078222632408e-03</internalNodes>
          <leafValues>
            -1.9346126914024353e-01 5.0858390331268311e-01</leafValues></_>
        <_>
          <internalNodes>
            0 -1 72 -7.0742913521826267e-03</internalNodes>
          <leafValues>
            4.9375921487808228e-01 -1.8197007477283478e-01</leafValues></_>
        <_>
          <internalNodes>
            0 -1 147 -5.5213617160916328e-03</internalNodes>
          <leafValues>
            -8.5304152965545654e-01 1.0838390141725540e-01</leafValues></_>
        <_>
          <internalNodes>
            0 -1 262 1.3321692124009132e-02</internalNodes>
          <leafValues>
            -1.7638540267944336e-01 5.9740036725997925e-01</leafValues></_>
        <_>
          <internalNodes>
            0 -1 158 -2.0362413488328457e-03</internalNodes>
          <leafValues>
            -7.7732473611831665e-01 1.3644814491271973e-01</leafValues></_>
        <_>
          <internalNodes>
            0 -1 140 1.8089891818817705e-04</internalNodes>
          <leafValues>
            -2.7639475464820862e-01 2.7183195948600769e-01</leafValues></_>
        <_>
          <internalNodes>
            0 -1 302 -1.0012841084972024e-03</internalNodes>
          <leafValues>
            -7.5422549247741699e-01 1.0075996071100235e-01</leafValues></_>
        <_>
          <internalNodes>
            0 -1 43 -3.2490508165210485e-03</internalNodes>
          <leafValues>
            3.7410300970077515e-01 -2.2439879179000854e-01</leafValues></_>
        <_>
          <internalNodes>
            0 -1 274 -1.8906474113464355e-02</internalNodes>
          <leafValues>
            6.6714608669281006e-01 -1.1365357786417007e-01</leafValues></_>
        <_>
          <internalNodes>
            0 -1 133 6.6399484872817993e-02</internalNodes>
          <leafValues>
            -1.1350058764219284e-01 6.3460749387741089e-01</leafValues></_>
        <_>
          <internalNodes>
            0 -1 69 4.3745795264840126e-03</internalNodes>
          <leafValues>
            -2.5402715802192688e-01 3.6180311441421509e-01</leafValues></_>
        <_>
          <internalNodes>
            0 -1 95 -2.8704963624477386e-02</internalNodes>
          <leafValues>
            4.1861045360565186e-01 -1.8337549269199371e-01</leafValues></_>
        <_>
          <internalNodes>
            0 -1 224 -4.7819525934755802e-03</internalNodes>
          <leafValues>
            3.7677919864654541e-01 -2.3528894782066345e-01</leafValues></_></weakClassifiers></_>
    <!-- stage 3 -->
    <_>
      <maxWeakCount>22</maxWeakCount>
      <stageThreshold>-1.3752827644348145e+00</stageThreshold>
      <weakClassifiers>
        <_>
          <internalNodes>
            0 -1 35 1.2100910767912865e-02</internalNodes>
          <leafValues>
            -5.9525156021118164e-01 2.0930232107639313e-01</leafValues></_>
        <_>
          <internalNodes>
            0 -1 196 -7.0965453982353210e-02</internalNodes>
          <leafValues>
            -7.4722814559936523e-01 2.1237675845623016e-01</leafValues></_>
        <_>
          <internalNodes>
            0 -1 98 -2.2249547764658928e-02</internalNodes>
          <leafValues>
            3.6320671439170837e-01 -4.3199783563613892e-01</leafValues></_>
        <_>
          <internalNodes>
            0 -1 128 -2.0638634450733662e-03</internalNodes>
          <leafValues>
            3.5600787401199341e-01 -3.0420270562171936e-01</leafValues></_>
        <_>
          <internalNodes>
            0 -1 245 -2.6720189489424229e-03</internalNodes>
          <leafValues>
            4.9409681558609009e-01 -1.9602140784263611e-01</leafValues></_>
        <_>
          <internalNodes>
            0 -1 183 -3.6900958511978388e-03</internalNodes>
          <leafValues>
            5.0741922855377197e-01 -1.8730223178863525e-01</leafValues></_>
        <_>
          <internalNodes>
            0 -1 86 -6.6548481583595276e-02</internalNodes>
          <leafValues>
            -7.5464779138565063e-01 1.4602321386337280e-01</leafValues></_>
        <_>
          <internalNodes>
            0 -1 77 8.8888425379991531e-03</internalNodes>
          <leafValues>
            -1.9263598322868347e-01 4.7750890254974365e-01</leafValues></_>
        <_>
          <internalNodes>
            0 -1 233 -2.3657426238059998e-01</internalNodes>
          <leafValues>
            -9.8558539152145386e-01 9.8321892321109772e-02</leafValues></_>
        <_>
          <internalNodes>
            0 -1 190 2.0029971376061440e-02</internalNodes>
          <leafValues>
            -1.8030306696891785e-01 4.5804947614669800e-01</leafValues></_>
        <_>
          <internalNodes>
            0 -1 23 -1.8022842705249786e-03</internalNodes>
          <leafValues>
            -6.2684017419815063e-01 1.3260284066200256e-01</leafValues></_>
        <_>
          <internalNodes>
            0 -1 19 4.8590218648314476e-03</internalNodes>
          <leafValues>
            1.0629577189683914e-01 -5.6044805049896240e-01</leafValues></_>
        <_>
          <internalNodes>
            0 -1 292 -9.2376000247895718e-04</internalNodes>
          <leafValues>
            6.5021669864654541e-01 -1.1415167897939682e-01</leafValues></_>
        <_>
          <internalNodes>
            0 -1 155 -2.9890190344303846e-03</internalNodes>
          <leafValues>
            4.3967297673225403e-01 -1.5747681260108948e-01</leafValues></_>
        <_>
          <internalNodes>
            0 -1 119 -8.2764793187379837e-03</internalNodes>
          <leafValues>
            4.9942147731781006e-01 -1.3127101957798004e-01</leafValues></_>
        <_>
          <internalNodes>
            0 -1 277 1.2836536392569542e-02</internalNodes>
          <leafValues>
            -1.0298781096935272e-01 6.5111750364303589e-01</leafValues></_>
        <_>
          <internalNodes>
            0 -1 6 3.2732384279370308e-03</internalNodes>
          <leafValues>
            -1.2410488724708557e-01 5.3912901878356934e-01</leafValues></_>
        <_>
          <internalNodes>
            0 -1 305 5.2457163110375404e-04</internalNodes>
          <leafValues>
            1.0214339941740036e-01 -6.9310796260833740e-01</leafValues></_>
        <_>
          <internalNodes>
            0 -1 28 1.7068861052393913e-02</internalNodes>
          <leafValues>
            -2.4432006478309631e-01 3.2357680797576904e-01</leafValues></_>
        <_>
          <internalNodes>
            0 -1 157 1.6202424885705113e-03</internalNodes>
          <leafValues>
            -1.4177881181240082e-01 4.9054092168807983e-01</leafValues></_>
        <_>
          <internalNodes>
            0 -1 148 1.9376723794266582e-03</internalNodes>
          <leafValues>
            1.0301377624273300e-01 -6.9934940338134766e-01</leafValues></_>
        <_>
          <internalNodes>
            0 -1 215 -6.0387409757822752e-04</internalNodes>
          <leafValues>
            3.5831680893898010e-01 -2.2077433764934540e-01</leafValues></_></weakClassifiers></_>
    <!-- stage 4 -->
    <_>
      <maxWeakCount>29</maxWeakCount>
      <stageThreshold>-1.3223557472229004e+00</stageThreshold>
      <weakClassifiers>
        <_>
          <internalNodes>
            0 -1 34 1.5447782352566719e-02</internalNodes>
          <leafValues>
            -5.7609295845031738e-01 2.0346319675445557e-01</leafValues></_>
        <_>
          <internalNodes>
            0 -1 99 -4.2810168117284775e-02</internalNodes>
          <leafValues>
            4.0224012732505798e-01 -3.2557719945907593e-01</leafValues></_>
        <_>
          <internalNodes>
            0 -1 198 9.9038053303956985e-04</internalNodes>
          <leafValues>
            -2.9590010643005371e-01 3.1530305743217468e-01</leafValues></_>
        <_>
          <internalNodes>
            0 -1 254 -5.2894961088895798e-02</internalNodes>
          <leafValues>
            -5.2701634168624878e-01 1.6612221300601959e-01</leafValues></_>
        <_>
          <internalNodes>
            0 -1 169 2.9325015842914581e-02</internalNodes>
          <leafValues>
            1.4102460443973541e-01 -6.1260432004928589e-01</leafValues></_>
        <_>
          <internalNodes>
            0 -1 52 -1.1533454060554504e-01</internalNodes>
          <leafValues>
            5.2468591928482056e-01 -1.5503925085067749e-01</leafValues></_>
        <_>
          <internalNodes>
            0 -1 102 -7.9293586313724518e-03</internalNodes>
          <leafValues>
            4.7503870725631714e-01 -1.6217233240604401e-01</leafValues></_>
        <_>
          <internalNodes>
            0 -1 295 1.3989249709993601e-03</internalNodes>
          <leafValues>
            1.0855546593666077e-01 -6.3613921403884888e-01</leafValues></_>
        <_>
          <internalNodes>
            0 -1 40 1.3110073283314705e-02</internalNodes>
          <leafValues>
            -2.7544239163398743e-01 2.8349909186363220e-01</leafValues></_>
        <_>
          <internalNodes>
            0 -1 240 -1.9426679238677025e-02</internalNodes>
          <leafValues>
            4.3251690268516541e-01 -1.7247927188873291e-01</leafValues></_>
        <_>
          <internalNodes>
            0 -1 78 7.5190132483839989e-03</internalNodes>
          <leafValues>
            -1.6289861500263214e-01 4.3209478259086609e-01</leafValues></_>
        <_>
          <internalNodes>
            0 -1 261 6.7225610837340355e-03</internalNodes>
          <leafValues>
            8.2608468830585480e-02 -8.3663076162338257e-01</leafValues></_>
        <_>
          <internalNodes>
            0 -1 150 7.9329377040266991e-03</internalNodes>
          <leafValues>
            -1.7097651958465576e-01 3.6751708388328552e-01</leafValues></_>
        <_>
          <internalNodes>
            0 -1 184 -1.6673464328050613e-02</internalNodes>
          <leafValues>
            5.4835742712020874e-01 -1.1982717365026474e-01</leafValues></_>
        <_>
          <internalNodes>
            0 -1 5 -1.7689974978566170e-02</internalNodes>
          <leafValues>
            6.6422855854034424e-01 -9.0728446841239929e-02</leafValues></_>
        <_>
          <internalNodes>
            0 -1 153 2.0742384716868401e-02</internalNodes>
          <leafValues>
            -1.3271468877792358e-01 4.6931761503219604e-01</leafValues></_>
        <_>
          <internalNodes>
            0 -1 159 1.8070641905069351e-02</internalNodes>
          <leafValues>
            -1.1633133143186569e-01 6.4871424436569214e-01</leafValues></_>
        <_>
          <internalNodes>
            0 -1 97 4.9795559607446194e-03</internalNodes>
          <leafValues>
            1.4162556827068329e-01 -5.2065926790237427e-01</leafValues></_>
        <_>
          <internalNodes>
            0 -1 18 -7.6092837844043970e-04</internalNodes>
          <leafValues>
            -5.6844741106033325e-01 9.9763266742229462e-02</leafValues></_>
        <_>
          <internalNodes>
            0 -1 252 7.5954394415020943e-03</internalNodes>
          <leafValues>
            -1.5493582189083099e-01 4.0611630678176880e-01</leafValues></_>
        <_>
          <internalNodes>
            0 -1 130 -7.2531605837866664e-05</internalNodes>
          <leafValues>
            2.6561293005943298e-01 -2.3914460837841034e-01</leafValues></_>
        <_>
          <internalNodes>
            0 -1 207 -5.0006266683340073e-03</internalNodes>
          <leafValues>
            -8.2055646181106567e-01 7.2824820876121521e-02</leafValues></_>
        <_>
          <internalNodes>
            0 -1 20 3.4758476540446281e-03</internalNodes>
          <leafValues>
            5.0441939383745193e-02 -8.2902902364730835e-01</leafValues></_>
        <_>
          <internalNodes>
            0 -1 247 1.9244760274887085e-01</internalNodes>
          <leafValues>
            -8.0364763736724854e-02 8.3092230558395386e-01</leafValues></_>
        <_>
          <internalNodes>
            0 -1 303 -2.0316562149673700e-03</internalNodes>
          <leafValues>
            -4.3878760933876038e-01 1.3708744943141937e-01</leafValues></_>
        <_>
          <internalNodes>
            0 -1 7 -1.4337450265884399e-03</internalNodes>
          <leafValues>
            3.1615212559700012e-01 -1.9164530932903290e-01</leafValues></_>
        <_>
          <internalNodes>
            0 -1 256 1.1783749796450138e-02</internalNodes>
          <leafValues>
            1.2520617246627808e-01 -4.9658265709877014e-01</leafValues></_>
        <_>
          <internalNodes>
            0 -1 294 1.7434332985430956e-03</internalNodes>
          <leafValues>
            7.1702145040035248e-02 -7.9230457544326782e-01</leafValues></_>
        <_>
          <internalNodes>
            0 -1 187 1.2777709634974599e-03</internalNodes>
          <leafValues>
            -2.1213729679584503e-01 2.6482003927230835e-01</leafValues></_></weakClassifiers></_>
    <!-- stage 5 -->
    <_>
      <maxWeakCount>41</maxWeakCount>
      <stageThreshold>-1.3759611845016479e+00</stageThreshold>
      <weakClassifiers>
        <_>
          <internalNodes>
            0 -1 162 1.0269062593579292e-02</internalNodes>
          <leafValues>
            -5.6772333383560181e-01 1.1111111193895340e-01</leafValues></_>
        <_>
          <internalNodes>
            0 -1 170 6.1986677348613739e-02</internalNodes>
          <leafValues>
            -3.6214721202850342e-01 3.1318807601928711e-01</leafValues></_>
        <_>
          <internalNodes>
            0 -1 30 2.8965640813112259e-03</internalNodes>
          <leafValues>
            -3.4242853522300720e-01 1.9929352402687073e-01</leafValues></_>
        <_>
          <internalNodes>
            0 -1 223 -1.3011418282985687e-02</internalNodes>
          <leafValues>
            3.1899121403694153e-01 -1.8409100174903870e-01</leafValues></_>
        <_>
          <internalNodes>
            0 -1 25 -1.1403373209759593e-03</internalNodes>
          <leafValues>
            -7.3355358839035034e-01 1.1699822545051575e-01</leafValues></_>
        <_>
          <internalNodes>
            0 -1 180 -4.0612611919641495e-03</internalNodes>
          <leafValues>
            4.7110450267791748e-01 -1.5105439722537994e-01</leafValues></_>
        <_>
          <internalNodes>
            0 -1 235 -1.3272094074636698e-03</internalNodes>
          <leafValues>
            3.7705278396606445e-01 -1.6142825782299042e-01</leafValues></_>
        <_>
          <internalNodes>
            0 -1 306 -3.8380766636691988e-04</internalNodes>
          <leafValues>
            -5.2484869956970215e-01 1.0237309336662292e-01</leafValues></_>
        <_>
          <internalNodes>
            0 -1 131 -2.6406981050968170e-03</internalNodes>
          <leafValues>
            4.5982724428176880e-01 -1.1395630985498428e-01</leafValues></_>
        <_>
          <internalNodes>
            0 -1 296 1.5876644756644964e-03</internalNodes>
          <leafValues>
            8.4979981184005737e-02 -6.6881191730499268e-01</leafValues></_>
        <_>
          <internalNodes>
            0 -1 199 -4.0125776082277298e-02</internalNodes>
          <leafValues>
            5.4777324199676514e-01 -1.1753216385841370e-01</leafValues></_>
        <_>
          <internalNodes>
            0 -1 108 1.9894656725227833e-04</internalNodes>
          <leafValues>
            -1.9988352060317993e-01 2.6461955904960632e-01</leafValues></_>
        <_>
          <internalNodes>
            0 -1 136 -8.6771510541439056e-03</internalNodes>
          <leafValues>
            2.6482990384101868e-01 -2.1523340046405792e-01</leafValues></_>
        <_>
          <internalNodes>
            0 -1 285 -9.1407652944326401e-03</internalNodes>
          <leafValues>
            5.2910637855529785e-01 -9.1621927917003632e-02</leafValues></_>
        <_>
          <internalNodes>
            0 -1 39 2.5114530324935913e-01</internalNodes>
          <leafValues>
            -9.1573968529701233e-02 6.5000331401824951e-01</leafValues></_>
        <_>
          <internalNodes>
            0 -1 271 -2.7011692523956299e-02</internalNodes>
          <leafValues>
            8.8083475828170776e-01 -5.6431550532579422e-02</leafValues></_>
        <_>
          <internalNodes>
            0 -1 96 1.4047697186470032e-02</internalNodes>
          <leafValues>
            -6.2998078763484955e-02 6.4026093482971191e-01</leafValues></_>
        <_>
          <internalNodes>
            0 -1 31 1.1829185299575329e-02</internalNodes>
          <leafValues>
            -1.0070030391216278e-01 4.4524961709976196e-01</leafValues></_>
        <_>
          <internalNodes>
            0 -1 100 -2.3789762053638697e-04</internalNodes>
          <leafValues>
            -4.1126668453216553e-01 1.3575156033039093e-01</leafValues></_>
        <_>
          <internalNodes>
            0 -1 24 1.6264212317764759e-03</internalNodes>
          <leafValues>
            1.3395765423774719e-01 -3.9698803424835205e-01</leafValues></_>
        <_>
          <internalNodes>
            0 -1 204 -1.5055779367685318e-03</internalNodes>
          <leafValues>
            3.4231361746788025e-01 -1.4065365493297577e-01</leafValues></_>
        <_>
          <internalNodes>
            0 -1 288 2.8727923054248095e-03</internalNodes>
          <leafValues>
            7.8291833400726318e-02 -7.7323246002197266e-01</leafValues></_>
        <_>
          <internalNodes>
            0 -1 221 -3.1298885005526245e-04</internalNodes>
          <leafValues>
            2.0495992898941040e-01 -2.4635106325149536e-01</leafValues></_>
        <_>
          <internalNodes>
            0 -1 272 -4.1220486164093018e-03</internalNodes>
          <leafValues>
            -5.7208240032196045e-01 8.5599198937416077e-02</leafValues></_>
        <_>
          <internalNodes>
            0 -1 186 1.2203972786664963e-02</internalNodes>
          <leafValues>
            4.2127627879381180e-02 -8.4144288301467896e-01</leafValues></_>
        <_>
          <internalNodes>
            0 -1 195 2.3798877373337746e-03</internalNodes>
          <leafValues>
            -1.4336185157299042e-01 3.4407591819763184e-01</leafValues></_>
        <_>
          <internalNodes>
            0 -1 57 -1.2504181824624538e-02</internalNodes>
          <leafValues>
            4.7768056392669678e-01 -9.6788197755813599e-02</leafValues></_>
        <_>
          <internalNodes>
            0 -1 55 1.4501187019050121e-02</internalNodes>
          <leafValues>
            -1.6881541907787323e-01 3.2835671305656433e-01</leafValues></_>
        <_>
          <internalNodes>
            0 -1 268 7.6900490967091173e-05</internalNodes>
          <leafValues>
            -2.3146858811378479e-01 2.2282820940017700e-01</leafValues></_>
        <_>
          <internalNodes>
            0 -1 8 -2.8932087123394012e-02</internalNodes>
          <leafValues>
            5.6179988384246826e-01 -8.8906735181808472e-02</leafValues></_>
        <_>
          <internalNodes>
            0 -1 13 2.1403918508440256e-03</internalNodes>
          <leafValues>
            -1.4307306706905365e-01 3.6360737681388855e-01</leafValues></_>
        <_>
          <internalNodes>
            0 -1 66 -6.1337025836110115e-03</internalNodes>
          <leafValues>
            -2.7167484164237976e-01 1.9358788430690765e-01</leafValues></_>
        <_>
          <internalNodes>
            0 -1 12 -3.9823874831199646e-03</internalNodes>
          <leafValues>
            2.8367793560028076e-01 -1.9738434255123138e-01</leafValues></_>
        <_>
          <internalNodes>
            0 -1 300 -8.8006159057840705e-04</internalNodes>
          <leafValues>
            -5.6525832414627075e-01 9.5011837780475616e-02</leafValues></_>
        <_>
          <internalNodes>
            0 -1 216 -9.5589056611061096e-02</internalNodes>
          <leafValues>
            7.8611016273498535e-01 -7.1604311466217041e-02</leafValues></_>
        <_>
          <internalNodes>
            0 -1 85 1.0235497355461121e-01</internalNodes>
          <leafValues>
            7.3895253241062164e-02 -7.5890010595321655e-01</leafValues></_>
        <_>
          <internalNodes>
            0 -1 107 -4.7339230775833130e-02</internalNodes>
          <leafValues>
            -5.9917116165161133e-01 8.2867793738842010e-02</leafValues></_>
        <_>
          <internalNodes>
            0 -1 219 2.4372196639887989e-04</internalNodes>
          <leafValues>
            -2.3798799514770508e-01 2.0543265342712402e-01</leafValues></_>
        <_>
          <internalNodes>
            0 -1 117 -1.9294660538434982e-02</internalNodes>
          <leafValues>
            3.9108848571777344e-01 -1.3970401883125305e-01</leafValues></_>
        <_>
          <internalNodes>
            0 -1 238 -6.6130412742495537e-03</internalNodes>
          <leafValues>
            3.5080641508102417e-01 -1.3879927992820740e-01</leafValues></_>
        <_>
          <internalNodes>
            0 -1 281 3.0662440694868565e-03</internalNodes>
          <leafValues>
            7.5602337718009949e-02 -7.2846829891204834e-01</leafValues></_></weakClassifiers></_>
    <!-- stage 6 -->
    <_>
      <maxWeakCount>41</maxWeakCount>
      <stageThreshold>-1.2523570060729980e+00</stageThreshold>
      <weakClassifiers>
        <_>
          <internalNodes>
            0 -1 2 5.4800864309072495e-03</internalNodes>
          <leafValues>
            -6.5776294469833374e-01 -8.6021505296230316e-02</leafValues></_>
        <_>
          <internalNodes>
            0 -1 191 -4.7900620847940445e-02</internalNodes>
          <leafValues>
            2.8510993719100952e-01 -3.1625628471374512e-01</leafValues></_>
        <_>
          <internalNodes>
            0 -1 152 4.7042313963174820e-03</internalNodes>
          <leafValues>
            -2.4742561578750610e-01 3.1273093819618225e-01</leafValues></_>
        <_>
          <internalNodes>
            0 -1 89 6.8231355398893356e-03</internalNodes>
          <leafValues>
            -1.2428911775350571e-01 4.6666917204856873e-01</leafValues></_>
        <_>
          <internalNodes>
            0 -1 297 1.7378914635628462e-03</internalNodes>
          <leafValues>
            1.6413457691669464e-01 -3.2534232735633850e-01</leafValues></_>
        <_>
          <internalNodes>
            0 -1 287 -1.9212884944863617e-04</internalNodes>
          <leafValues>
            2.1309927105903625e-01 -2.5772941112518311e-01</leafValues></_>
        <_>
          <internalNodes>
            0 -1 94 -2.3524684365838766e-03</internalNodes>
          <leafValues>
            5.1433390378952026e-01 -9.2784725129604340e-02</leafValues></_>
        <_>
          <internalNodes>
            0 -1 103 -1.8349029123783112e-02</internalNodes>
          <leafValues>
            5.2759546041488647e-01 -1.0689918696880341e-01</leafValues></_>
        <_>
          <internalNodes>
            0 -1 274 -2.0252112299203873e-02</internalNodes>
          <leafValues>
            5.3784936666488647e-01 -1.1147711426019669e-01</leafValues></_>
        <_>
          <internalNodes>
            0 -1 276 1.6612404957413673e-02</internalNodes>
          <leafValues>
            -6.5826326608657837e-02 6.4008700847625732e-01</leafValues></_>
        <_>
          <internalNodes>
            0 -1 122 3.5546168684959412e-02</internalNodes>
          <leafValues>
            -5.7024862617254257e-02 7.7798485755920410e-01</leafValues></_>
        <_>
          <internalNodes>
            0 -1 210 8.3154961466789246e-02</internalNodes>
          <leafValues>
            6.9026470184326172e-02 -7.2676217555999756e-01</leafValues></_>
        <_>
          <internalNodes>
            0 -1 225 1.0019764304161072e-03</internalNodes>
          <leafValues>
            -1.6174128651618958e-01 2.8583979606628418e-01</leafValues></_>
        <_>
          <internalNodes>
            0 -1 101 -3.1537972972728312e-04</internalNodes>
          <leafValues>
            -4.3408432602882385e-01 1.1046230792999268e-01</leafValues></_>
        <_>
          <internalNodes>
            0 -1 154 7.2980225086212158e-03</internalNodes>
          <leafValues>
            6.9408573210239410e-02 -6.0007852315902710e-01</leafValues></_>
        <_>
          <internalNodes>
            0 -1 214 -1.3797227293252945e-03</internalNodes>
          <leafValues>
            3.1017377972602844e-01 -1.4378274977207184e-01</leafValues></_>
        <_>
          <internalNodes>
            0 -1 61 3.0634668655693531e-03</internalNodes>
          <leafValues>
            7.9947121441364288e-02 -5.2577406167984009e-01</leafValues></_>
        <_>
          <internalNodes>
            0 -1 38 -8.4083131514489651e-04</internalNodes>
          <leafValues>
            1.7584124207496643e-01 -2.6496607065200806e-01</leafValues></_>
        <_>
          <internalNodes>
            0 -1 239 -4.9742562696337700e-03</internalNodes>
          <leafValues>
            3.1501311063766479e-01 -1.4598573744297028e-01</leafValues></_>
        <_>
          <internalNodes>
            0 -1 228 2.5814003311097622e-03</internalNodes>
          <leafValues>
            -1.3890375196933746e-01 3.3260589838027954e-01</leafValues></_>
        <_>
          <internalNodes>
            0 -1 299 6.2697073444724083e-03</internalNodes>
          <leafValues>
            1.4322982728481293e-01 -3.1716731190681458e-01</leafValues></_>
        <_>
          <internalNodes>
            0 -1 232 1.6361352056264877e-02</internalNodes>
          <leafValues>
            -8.6721979081630707e-02 5.0349628925323486e-01</leafValues></_>
        <_>
          <internalNodes>
            0 -1 264 -4.1623329743742943e-03</internalNodes>
          <leafValues>
            -6.7619597911834717e-01 7.5263150036334991e-02</leafValues></_>
        <_>
          <internalNodes>
            0 -1 182 -8.2401372492313385e-03</internalNodes>
          <leafValues>
            4.2298096418380737e-01 -1.2111620604991913e-01</leafValues></_>
        <_>
          <internalNodes>
            0 -1 54 -2.2032905369997025e-02</internalNodes>
          <leafValues>
            3.6845874786376953e-01 -1.4542239904403687e-01</leafValues></_>
        <_>
          <internalNodes>
            0 -1 3 -1.5106259845197201e-02</internalNodes>
          <leafValues>
            4.4309532642364502e-01 -1.1165274679660797e-01</leafValues></_>
        <_>
          <internalNodes>
            0 -1 22 1.7636739648878574e-03</internalNodes>
          <leafValues>
            8.6519211530685425e-02 -5.5508023500442505e-01</leafValues></_>
        <_>
          <internalNodes>
            0 -1 50 3.7302691489458084e-03</internalNodes>
          <leafValues>
            3.9209686219692230e-02 -9.1492378711700439e-01</leafValues></_>
        <_>
          <internalNodes>
            0 -1 244 -1.6007756348699331e-03</internalNodes>
          <leafValues>
            3.8411906361579895e-01 -1.2013087421655655e-01</leafValues></_>
        <_>
          <internalNodes>
            0 -1 106 -5.8835763484239578e-03</internalNodes>
          <leafValues>
            -8.9481401443481445e-01 5.3253579884767532e-02</leafValues></_>
        <_>
          <internalNodes>
            0 -1 17 2.6295655407011509e-03</internalNodes>
          <leafValues>
            3.9706546813249588e-02 -7.8032439947128296e-01</leafValues></_>
        <_>
          <internalNodes>
            0 -1 171 2.0187201444059610e-03</internalNodes>
          <leafValues>
            -1.4388576149940491e-01 3.3313676714897156e-01</leafValues></_>
        <_>
          <internalNodes>
            0 -1 90 3.7897336296737194e-03</internalNodes>
          <leafValues>
            -1.5645006299018860e-01 3.3342140913009644e-01</leafValues></_>
        <_>
          <internalNodes>
            0 -1 67 -4.3011764064431190e-03</internalNodes>
          <leafValues>
            2.2319185733795166e-01 -2.2006011009216309e-01</leafValues></_>
        <_>
          <internalNodes>
            0 -1 220 3.6951731890439987e-03</internalNodes>
          <leafValues>
            -1.5754088759422302e-01 2.7119362354278564e-01</leafValues></_>
        <_>
          <internalNodes>
            0 -1 92 6.5432942938059568e-04</internalNodes>
          <leafValues>
            -2.6124963164329529e-01 1.9043393433094025e-01</leafValues></_>
        <_>
          <internalNodes>
            0 -1 91 -3.1227063387632370e-02</internalNodes>
          <leafValues>
            4.7916138172149658e-01 -1.0641008615493774e-01</leafValues></_>
        <_>
          <internalNodes>
            0 -1 173 8.2457670941948891e-03</internalNodes>
          <leafValues>
            1.0468334704637527e-01 -4.7912308573722839e-01</leafValues></_>
        <_>
          <internalNodes>
            0 -1 227 7.4910523835569620e-04</internalNodes>
          <leafValues>
            -2.2240555286407471e-01 2.1216687560081482e-01</leafValues></_>
        <_>
          <internalNodes>
            0 -1 132 -8.3582173101603985e-04</internalNodes>
          <leafValues>
            3.3574965596199036e-01 -1.4941895008087158e-01</leafValues></_>
        <_>
          <internalNodes>
            0 -1 76 -1.0853900574147701e-02</internalNodes>
          <leafValues>
            4.2156308889389038e-01 -1.1705850064754486e-01</leafValues></_></weakClassifiers></_>
    <!-- stage 7 -->
    <_>
      <maxWeakCount>44</maxWeakCount>
      <stageThreshold>-1.2140948772430420e+00</stageThreshold>
      <weakClassifiers>
        <_>
          <internalNodes>
            0 -1 193 -3.8290254771709442e-02</internalNodes>
          <leafValues>
            3.7037037312984467e-02 -5.0684928894042969e-01</leafValues></_>
        <_>
          <internalNodes>
            0 -1 83 -1.1383943259716034e-02</internalNodes>
          <leafValues>
            5.1533329486846924e-01 -1.4489005506038666e-01</leafValues></_>
        <_>
          <internalNodes>
            0 -1 124 6.0526845045387745e-03</internalNodes>
          <leafValues>
            -1.2534441053867340e-01 4.8540973663330078e-01</leafValues></_>
        <_>
          <internalNodes>
            0 -1 44 -5.3820908069610596e-02</internalNodes>
          <leafValues>
            -8.2984137535095215e-01 6.8723827600479126e-02</leafValues></_>
        <_>
          <internalNodes>
            0 -1 168 -2.0426367409527302e-03</internalNodes>
          <leafValues>
            2.6789095997810364e-01 -2.3665212094783783e-01</leafValues></_>
        <_>
          <internalNodes>
            0 -1 145 -2.1948002278804779e-02</internalNodes>
          <leafValues>
            -5.9213370084762573e-01 7.8332588076591492e-02</leafValues></_>
        <_>
          <internalNodes>
            0 -1 1 8.2495175302028656e-03</internalNodes>
          <leafValues>
            -2.3870663344860077e-01 2.6496544480323792e-01</leafValues></_>
        <_>
          <internalNodes>
            0 -1 279 6.4703160896897316e-03</internalNodes>
          <leafValues>
            1.1937371641397476e-01 -3.7349262833595276e-01</leafValues></_>
        <_>
          <internalNodes>
            0 -1 234 3.4821957815438509e-03</internalNodes>
          <leafValues>
            7.5211130082607269e-02 -6.6572844982147217e-01</leafValues></_>
        <_>
          <internalNodes>
            0 -1 211 3.3199638128280640e-03</internalNodes>
          <leafValues>
            6.8769544363021851e-02 -6.8807220458984375e-01</leafValues></_>
        <_>
          <internalNodes>
            0 -1 278 8.2552321255207062e-03</internalNodes>
          <leafValues>
            -1.2139029055833817e-01 4.0975859761238098e-01</leafValues></_>
        <_>
          <internalNodes>
            0 -1 303 -5.1587987691164017e-03</internalNodes>
          <leafValues>
            -6.4392018318176270e-01 7.5801610946655273e-02</leafValues></_>
        <_>
          <internalNodes>
            0 -1 257 -4.5379452058114111e-04</internalNodes>
          <leafValues>
            3.6610615253448486e-01 -1.2817496061325073e-01</leafValues></_>
        <_>
          <internalNodes>
            0 -1 112 7.3915785178542137e-03</internalNodes>
          <leafValues>
            -1.2123031169176102e-01 3.7112000584602356e-01</leafValues></_>
        <_>
          <internalNodes>
            0 -1 113 -1.5533752739429474e-02</internalNodes>
          <leafValues>
            4.7246032953262329e-01 -1.2181012332439423e-01</leafValues></_>
        <_>
          <internalNodes>
            0 -1 188 -6.4099431037902832e-03</internalNodes>
          <leafValues>
            -5.7578343152999878e-01 9.4632662832736969e-02</leafValues></_>
        <_>
          <internalNodes>
            0 -1 298 -6.2023615464568138e-03</internalNodes>
          <leafValues>
            -8.7261968851089478e-01 3.6991704255342484e-02</leafValues></_>
        <_>
          <internalNodes>
            0 -1 60 -6.3685877248644829e-03</internalNodes>
          <leafValues>
            -9.0573352575302124e-01 4.2015604674816132e-02</leafValues></_>
        <_>
          <internalNodes>
            0 -1 79 -1.0054636746644974e-02</internalNodes>
          <leafValues>
            2.2685012221336365e-01 -1.9431997835636139e-01</leafValues></_>
        <_>
          <internalNodes>
            0 -1 206 2.3141354322433472e-03</internalNodes>
          <leafValues>
            -1.2533512711524963e-01 3.5826325416564941e-01</leafValues></_>
        <_>
          <internalNodes>
            0 -1 84 -6.1801955103874207e-02</internalNodes>
          <leafValues>
            2.9414486885070801e-01 -1.6252166032791138e-01</leafValues></_>
        <_>
          <internalNodes>
            0 -1 286 -9.2539514298550785e-05</internalNodes>
          <leafValues>
            2.1727147698402405e-01 -2.3640976846218109e-01</leafValues></_>
        <_>
          <internalNodes>
            0 -1 200 2.2867202758789063e-02</internalNodes>
          <leafValues>
            -1.0514735430479050e-01 4.7895780205726624e-01</leafValues></_>
        <_>
          <internalNodes>
            0 -1 174 -7.8692915849387646e-04</internalNodes>
          <leafValues>
            2.8286609053611755e-01 -1.4393219351768494e-01</leafValues></_>
        <_>
          <internalNodes>
            0 -1 18 7.5844972161576152e-04</internalNodes>
          <leafValues>
            7.8869476914405823e-02 -5.3495281934738159e-01</leafValues></_>
        <_>
          <internalNodes>
            0 -1 161 -2.9700929298996925e-03</internalNodes>
          <leafValues>
            -6.5346074104309082e-01 5.8381859213113785e-02</leafValues></_>
        <_>
          <internalNodes>
            0 -1 255 -1.3754225801676512e-03</internalNodes>
          <leafValues>
            2.8513020277023315e-01 -1.6187514364719391e-01</leafValues></_>
        <_>
          <internalNodes>
            0 -1 146 -8.8405996561050415e-02</internalNodes>
          <leafValues>
            -6.5493541955947876e-01 6.5694645047187805e-02</leafValues></_>
        <_>
          <internalNodes>
            0 -1 68 -4.5502050779759884e-03</internalNodes>
          <leafValues>
            -9.9152350425720215e-01 3.1558822840452194e-02</leafValues></_>
        <_>
          <internalNodes>
            0 -1 226 6.4304769039154053e-03</internalNodes>
          <leafValues>
            -8.1895790994167328e-02 6.4921098947525024e-01</leafValues></_>
        <_>
          <internalNodes>
            0 -1 263 -1.8051400780677795e-02</internalNodes>
          <leafValues>
            4.4216778874397278e-01 -9.6779629588127136e-02</leafValues></_>
        <_>
          <internalNodes>
            0 -1 88 -4.4595003128051758e-03</internalNodes>
          <leafValues>
            -4.0903940796852112e-01 1.0741686820983887e-01</leafValues></_>
        <_>
          <internalNodes>
            0 -1 26 7.5515208300203085e-04</internalNodes>
          <leafValues>
            1.0000225901603699e-01 -3.9375117421150208e-01</leafValues></_>
        <_>
          <internalNodes>
            0 -1 82 -6.4238708000630140e-04</internalNodes>
          <leafValues>
            2.1595638990402222e-01 -2.0349030196666718e-01</leafValues></_>
        <_>
          <internalNodes>
            0 -1 213 -6.4508110517635942e-04</internalNodes>
          <leafValues>
            2.8200566768646240e-01 -1.6109080612659454e-01</leafValues></_>
        <_>
          <internalNodes>
            0 -1 115 6.9422973319888115e-03</internalNodes>
          <leafValues>
            5.5197510868310928e-02 -7.8713881969451904e-01</leafValues></_>
        <_>
          <internalNodes>
            0 -1 73 -1.0239897528663278e-03</internalNodes>
          <leafValues>
            3.3457991480827332e-01 -1.3508005440235138e-01</leafValues></_>
        <_>
          <internalNodes>
            0 -1 46 -7.4232360348105431e-03</internalNodes>
          <leafValues>
            -8.2104098796844482e-01 5.2955765277147293e-02</leafValues></_>
        <_>
          <internalNodes>
            0 -1 172 -8.0665363930165768e-04</internalNodes>
          <leafValues>
            -6.4652502536773682e-01 5.8028731495141983e-02</leafValues></_>
        <_>
          <internalNodes>
            0 -1 250 6.5665794536471367e-03</internalNodes>
          <leafValues>
            -1.0119461268186569e-01 4.4928565621376038e-01</leafValues></_>
        <_>
          <internalNodes>
            0 -1 142 7.7548861503601074e-02</internalNodes>
          <leafValues>
            -9.3634381890296936e-02 4.6537420153617859e-01</leafValues></_>
        <_>
          <internalNodes>
            0 -1 48 1.1610426008701324e-01</internalNodes>
          <leafValues>
            7.1517042815685272e-02 -5.8612716197967529e-01</leafValues></_>
        <_>
          <internalNodes>
            0 -1 87 1.9143648678436875e-03</internalNodes>
          <leafValues>
            -2.0969165861606598e-01 1.9474975764751434e-01</leafValues></_>
        <_>
          <internalNodes>
            0 -1 266 2.0541816949844360e-02</internalNodes>
          <leafValues>
            8.0672957003116608e-02 -5.0778561830520630e-01</leafValues></_></weakClassifiers></_>
    <!-- stage 8 -->
    <_>
      <maxWeakCount>44</maxWeakCount>
      <stageThreshold>-1.1670004129409790e+00</stageThreshold>
      <weakClassifiers>
        <_>
          <internalNodes>
            0 -1 10 6.4891823567450047e-03</internalNodes>
          <leafValues>
            -4.2758321762084961e-01 4.7593581676483154e-01</leafValues></_>
        <_>
          <internalNodes>
            0 -1 282 9.8600694909691811e-03</internalNodes>
          <leafValues>
            -1.8300035595893860e-01 6.0191661119461060e-01</leafValues></_>
        <_>
          <internalNodes>
            0 -1 111 -3.6991736851632595e-03</internalNodes>
          <leafValues>
            3.0959901213645935e-01 -1.7426621913909912e-01</leafValues></_>
        <_>
          <internalNodes>
            0 -1 29 7.6300832442939281e-03</internalNodes>
          <leafValues>
            -2.1374049782752991e-01 2.4474836885929108e-01</leafValues></_>
        <_>
          <internalNodes>
            0 -1 208 -3.0172646511346102e-03</internalNodes>
          <leafValues>
            2.9678279161453247e-01 -1.8766473233699799e-01</leafValues></_>
        <_>
          <internalNodes>
            0 -1 151 9.7540104761719704e-03</internalNodes>
          <leafValues>
            -1.3253730535507202e-01 3.3689913153648376e-01</leafValues></_>
        <_>
          <internalNodes>
            0 -1 273 5.3735040128231049e-03</internalNodes>
          <leafValues>
            6.4460895955562592e-02 -7.9052233695983887e-01</leafValues></_>
        <_>
          <internalNodes>
            0 -1 21 3.8988669402897358e-03</internalNodes>
          <leafValues>
            6.3904561102390289e-02 -6.5294653177261353e-01</leafValues></_>
        <_>
          <internalNodes>
            0 -1 175 -6.7635467275977135e-03</internalNodes>
          <leafValues>
            -8.5628652572631836e-01 5.1527183502912521e-02</leafValues></_>
        <_>
          <internalNodes>
            0 -1 64 -3.5935235209763050e-03</internalNodes>
          <leafValues>
            5.4008769989013672e-01 -8.3851993083953857e-02</leafValues></_>
        <_>
          <internalNodes>
            0 -1 45 -8.3423018455505371e-02</internalNodes>
          <leafValues>
            -7.7256882190704346e-01 5.7108622044324875e-02</leafValues></_>
        <_>
          <internalNodes>
            0 -1 236 -2.0449718460440636e-02</internalNodes>
          <leafValues>
            4.7018009424209595e-01 -9.0360403060913086e-02</leafValues></_>
        <_>
          <internalNodes>
            0 -1 156 -1.3672449858859181e-03</internalNodes>
          <leafValues>
            2.7098047733306885e-01 -1.5508247911930084e-01</leafValues></_>
        <_>
          <internalNodes>
            0 -1 110 3.7545375525951385e-02</internalNodes>
          <leafValues>
            6.4189314842224121e-02 -6.7399835586547852e-01</leafValues></_>
        <_>
          <internalNodes>
            0 -1 242 1.1932184919714928e-02</internalNodes>
          <leafValues>
            -1.2914699316024780e-01 2.9960238933563232e-01</leafValues></_>
        <_>
          <internalNodes>
            0 -1 202 5.4546203464269638e-02</internalNodes>
          <leafValues>
            -7.5800769031047821e-02 5.3204584121704102e-01</leafValues></_>
        <_>
          <internalNodes>
            0 -1 71 2.6365988887846470e-03</internalNodes>
          <leafValues>
            -9.6250034868717194e-02 4.0419590473175049e-01</leafValues></_>
        <_>
          <internalNodes>
            0 -1 229 -5.2163377404212952e-03</internalNodes>
          <leafValues>
            -5.9776675701141357e-01 6.5828546881675720e-02</leafValues></_>
        <_>
          <internalNodes>
            0 -1 201 5.5223272647708654e-04</internalNodes>
          <leafValues>
            6.4405038952827454e-02 -5.1803267002105713e-01</leafValues></_>
        <_>
          <internalNodes>
            0 -1 251 -1.9909190014004707e-03</internalNodes>
          <leafValues>
            3.2061457633972168e-01 -1.2343408912420273e-01</leafValues></_>
        <_>
          <internalNodes>
            0 -1 59 7.5300672324374318e-04</internalNodes>
          <leafValues>
            -1.5947505831718445e-01 2.3945185542106628e-01</leafValues></_>
        <_>
          <internalNodes>
            0 -1 37 -2.3641693405807018e-03</internalNodes>
          <leafValues>
            1.9226928055286407e-01 -2.3423632979393005e-01</leafValues></_>
        <_>
          <internalNodes>
            0 -1 41 7.4906587600708008e-02</internalNodes>
          <leafValues>
            7.6672382652759552e-02 -5.6965821981430054e-01</leafValues></_>
        <_>
          <internalNodes>
            0 -1 167 1.0688141919672489e-03</internalNodes>
          <leafValues>
            -1.7562428116798401e-01 2.2786010801792145e-01</leafValues></_>
        <_>
          <internalNodes>
            0 -1 185 1.0876981541514397e-02</internalNodes>
          <leafValues>
            4.4761296361684799e-02 -8.6554610729217529e-01</leafValues></_>
        <_>
          <internalNodes>
            0 -1 105 4.1938554495573044e-03</internalNodes>
          <leafValues>
            -2.2995436191558838e-01 1.8704843521118164e-01</leafValues></_>
        <_>
          <internalNodes>
            0 -1 291 -3.0574863776564598e-03</internalNodes>
          <leafValues>
            -7.9762315750122070e-01 4.5910246670246124e-02</leafValues></_>
        <_>
          <internalNodes>
            0 -1 80 -6.2928907573223114e-03</internalNodes>
          <leafValues>
            2.3583059012889862e-01 -1.6861487925052643e-01</leafValues></_>
        <_>
          <internalNodes>
            0 -1 129 -1.9700899720191956e-02</internalNodes>
          <leafValues>
            -4.8627570271492004e-01 9.0758010745048523e-02</leafValues></_>
        <_>
          <internalNodes>
            0 -1 166 3.1005707569420338e-03</internalNodes>
          <leafValues>
            -1.7770107090473175e-01 2.3470307886600494e-01</leafValues></_>
        <_>
          <internalNodes>
            0 -1 197 3.8815876469016075e-03</internalNodes>
          <leafValues>
            7.3050871491432190e-02 -5.3434395790100098e-01</leafValues></_>
        <_>
          <internalNodes>
            0 -1 134 -3.5573623608797789e-03</internalNodes>
          <leafValues>
            3.8824692368507385e-01 -1.0274929553270340e-01</leafValues></_>
        <_>
          <internalNodes>
            0 -1 181 -8.8134370744228363e-03</internalNodes>
          <leafValues>
            4.8532262444496155e-01 -9.6900612115859985e-02</leafValues></_>
        <_>
          <internalNodes>
            0 -1 253 2.4743590620346367e-04</internalNodes>
          <leafValues>
            -2.1931588649749756e-01 1.8176631629467010e-01</leafValues></_>
        <_>
          <internalNodes>
            0 -1 205 -6.1974604614078999e-04</internalNodes>
          <leafValues>
            3.1282377243041992e-01 -1.4933928847312927e-01</leafValues></_>
        <_>
          <internalNodes>
            0 -1 160 6.9407914998009801e-04</internalNodes>
          <leafValues>
            8.4775172173976898e-02 -4.8261064291000366e-01</leafValues></_>
        <_>
          <internalNodes>
            0 -1 260 -3.0239414423704147e-02</internalNodes>
          <leafValues>
            -4.0839561820030212e-01 9.6038214862346649e-02</leafValues></_>
        <_>
          <internalNodes>
            0 -1 283 1.9605748821049929e-03</internalNodes>
          <leafValues>
            -1.0333029180765152e-01 4.0921616554260254e-01</leafValues></_>
        <_>
          <internalNodes>
            0 -1 49 3.9875409565865993e-03</internalNodes>
          <leafValues>
            8.3145856857299805e-02 -4.8402059078216553e-01</leafValues></_>
        <_>
          <internalNodes>
            0 -1 135 -5.4208375513553619e-03</internalNodes>
          <leafValues>
            -8.1783097982406616e-01 4.0854398161172867e-02</leafValues></_>
        <_>
          <internalNodes>
            0 -1 179 7.6491562649607658e-03</internalNodes>
          <leafValues>
            -9.8587796092033386e-02 4.3013483285903931e-01</leafValues></_>
        <_>
          <internalNodes>
            0 -1 217 -6.3914023339748383e-03</internalNodes>
          <leafValues>
            3.5722875595092773e-01 -1.1478412896394730e-01</leafValues></_>
        <_>
          <internalNodes>
            0 -1 114 -5.5573321878910065e-02</internalNodes>
          <leafValues>
            4.1244113445281982e-01 -9.9920861423015594e-02</leafValues></_>
        <_>
          <internalNodes>
            0 -1 144 -1.6589555889368057e-03</internalNodes>
          <leafValues>
            2.9979330301284790e-01 -1.5777635574340820e-01</leafValues></_></weakClassifiers></_>
    <!-- stage 9 -->
    <_>
      <maxWeakCount>46</maxWeakCount>
      <stageThreshold>-1.2308255434036255e+00</stageThreshold>
      <weakClassifiers>
        <_>
          <internalNodes>
            0 -1 280 3.4797124564647675e-02</internalNodes>
          <leafValues>
            -4.1537168622016907e-01 7.4789917469024658e-01</leafValues></_>
        <_>
          <internalNodes>
            0 -1 0 1.8088091164827347e-02</internalNodes>
          <leafValues>
            -2.1135440468788147e-01 3.2445472478866577e-01</leafValues></_>
        <_>
          <internalNodes>
            0 -1 65 -6.6604595631361008e-03</internalNodes>
          <leafValues>
            2.8615155816078186e-01 -1.7093127965927124e-01</leafValues></_>
        <_>
          <internalNodes>
            0 -1 143 1.1054623126983643e-01</internalNodes>
          <leafValues>
            -1.0452701151371002e-01 4.7316452860832214e-01</leafValues></_>
        <_>
          <internalNodes>
            0 -1 293 -6.5343333408236504e-03</internalNodes>
          <leafValues>
            6.2876129150390625e-01 -5.5577371269464493e-02</leafValues></_>
        <_>
          <internalNodes>
            0 -1 304 -6.8553176242858171e-04</internalNodes>
          <leafValues>
            -6.5468943119049072e-01 7.8148290514945984e-02</leafValues></_>
        <_>
          <internalNodes>
            0 -1 176 -1.8757934449240565e-03</internalNodes>
          <leafValues>
            -4.4547957181930542e-01 1.0957019031047821e-01</leafValues></_>
        <_>
          <internalNodes>
            0 -1 164 2.9548574239015579e-03</internalNodes>
          <leafValues>
            -2.2119948267936707e-01 2.0283225178718567e-01</leafValues></_>
        <_>
          <internalNodes>
            0 -1 290 -3.9875239599496126e-04</internalNodes>
          <leafValues>
            -4.8181799054145813e-01 9.0131990611553192e-02</leafValues></_>
        <_>
          <internalNodes>
            0 -1 11 6.9043152034282684e-03</internalNodes>
          <leafValues>
            5.6762322783470154e-02 -8.0313014984130859e-01</leafValues></_>
        <_>
          <internalNodes>
            0 -1 246 2.7004654984921217e-03</internalNodes>
          <leafValues>
            -1.3211089372634888e-01 3.6760556697845459e-01</leafValues></_>
        <_>
          <internalNodes>
            0 -1 16 4.9566749483346939e-02</internalNodes>
          <leafValues>
            -6.4811833202838898e-02 5.7640194892883301e-01</leafValues></_>
        <_>
          <internalNodes>
            0 -1 237 1.5119331656023860e-03</internalNodes>
          <leafValues>
            5.3051184862852097e-02 -8.9547526836395264e-01</leafValues></_>
        <_>
          <internalNodes>
            0 -1 15 -2.9109362512826920e-02</internalNodes>
          <leafValues>
            4.4212007522583008e-01 -1.0762798786163330e-01</leafValues></_>
        <_>
          <internalNodes>
            0 -1 141 -3.8368790410459042e-03</internalNodes>
          <leafValues>
            -8.1149917840957642e-01 5.9557884931564331e-02</leafValues></_>
        <_>
          <internalNodes>
            0 -1 58 -1.2784456834197044e-02</internalNodes>
          <leafValues>
            2.4448792636394501e-01 -1.7182245850563049e-01</leafValues></_>
        <_>
          <internalNodes>
            0 -1 267 -7.8441351652145386e-03</internalNodes>
          <leafValues>
            3.4096208214759827e-01 -1.2015391886234283e-01</leafValues></_>
        <_>
          <internalNodes>
            0 -1 301 -1.1502325069159269e-03</internalNodes>
          <leafValues>
            -5.8611601591110229e-01 7.1449458599090576e-02</leafValues></_>
        <_>
          <internalNodes>
            0 -1 121 2.7730455622076988e-03</internalNodes>
          <leafValues>
            -1.4923717081546783e-01 2.8085973858833313e-01</leafValues></_>
        <_>
          <internalNodes>
            0 -1 269 1.1335182934999466e-03</internalNodes>
          <leafValues>
            1.3568148016929626e-01 -3.1140640377998352e-01</leafValues></_>
        <_>
          <internalNodes>
            0 -1 231 -2.6406566612422466e-03</internalNodes>
          <leafValues>
            -6.5542036294937134e-01 6.0932122170925140e-02</leafValues></_>
        <_>
          <internalNodes>
            0 -1 118 -1.1911654844880104e-02</internalNodes>
          <leafValues>
            6.1642813682556152e-01 -7.5672574341297150e-02</leafValues></_>
        <_>
          <internalNodes>
            0 -1 4 -2.7605751529335976e-03</internalNodes>
          <leafValues>
            4.3091762065887451e-01 -1.0617505759000778e-01</leafValues></_>
        <_>
          <internalNodes>
            0 -1 241 2.5011707097291946e-02</internalNodes>
          <leafValues>
            2.0849074423313141e-01 -1.9663479924201965e-01</leafValues></_>
        <_>
          <internalNodes>
            0 -1 62 -1.2687742710113525e-02</internalNodes>
          <leafValues>
            -7.0525288581848145e-01 5.5643208324909210e-02</leafValues></_>
        <_>
          <internalNodes>
            0 -1 42 1.0602129623293877e-03</internalNodes>
          <leafValues>
            -2.2362425923347473e-01 2.0366254448890686e-01</leafValues></_>
        <_>
          <internalNodes>
            0 -1 249 -5.9867650270462036e-04</internalNodes>
          <leafValues>
            3.1642705202102661e-01 -1.3008949160575867e-01</leafValues></_>
        <_>
          <internalNodes>
            0 -1 9 -1.8847499042749405e-02</internalNodes>
          <leafValues>
            -6.2381666898727417e-01 6.7119926214218140e-02</leafValues></_>
        <_>
          <internalNodes>
            0 -1 230 2.6649620849639177e-03</internalNodes>
          <leafValues>
            5.3712818771600723e-02 -6.1008971929550171e-01</leafValues></_>
        <_>
          <internalNodes>
            0 -1 305 -8.4049720317125320e-04</internalNodes>
          <leafValues>
            -6.5052527189254761e-01 5.4227527230978012e-02</leafValues></_>
        <_>
          <internalNodes>
            0 -1 259 -1.9083900842815638e-03</internalNodes>
          <leafValues>
            4.9400699138641357e-01 -1.0069941729307175e-01</leafValues></_>
        <_>
          <internalNodes>
            0 -1 203 -2.7370300143957138e-02</internalNodes>
          <leafValues>
            -6.4410811662673950e-01 7.3741078376770020e-02</leafValues></_>
        <_>
          <internalNodes>
            0 -1 33 -5.9913292527198792e-02</internalNodes>
          <leafValues>
            8.7777376174926758e-01 -5.9809703379869461e-02</leafValues></_>
        <_>
          <internalNodes>
            0 -1 93 -1.2259148061275482e-03</internalNodes>
          <leafValues>
            3.3496636152267456e-01 -1.3086305558681488e-01</leafValues></_>
        <_>
          <internalNodes>
            0 -1 212 -8.8187394430860877e-04</internalNodes>
          <leafValues>
            -7.0576131343841553e-01 6.2959477305412292e-02</leafValues></_>
        <_>
          <internalNodes>
            0 -1 192 3.8042906671762466e-03</internalNodes>
          <leafValues>
            1.3416856527328491e-01 -2.8432384133338928e-01</leafValues></_>
        <_>
          <internalNodes>
            0 -1 178 -1.3104511890560389e-03</internalNodes>
          <leafValues>
            2.0039469003677368e-01 -1.9421336054801941e-01</leafValues></_>
        <_>
          <internalNodes>
            0 -1 56 -8.6831264197826385e-03</internalNodes>
          <leafValues>
            4.7327747941017151e-01 -1.1137577891349792e-01</leafValues></_>
        <_>
          <internalNodes>
            0 -1 27 -2.1193543216213584e-04</internalNodes>
          <leafValues>
            -3.9767765998840332e-01 1.0559260845184326e-01</leafValues></_>
        <_>
          <internalNodes>
            0 -1 120 -4.3475331040099263e-04</internalNodes>
          <leafValues>
            1.7122332751750946e-01 -2.2594271600246429e-01</leafValues></_>
        <_>
          <internalNodes>
            0 -1 14 1.4834431000053883e-02</internalNodes>
          <leafValues>
            -1.0890735685825348e-01 3.6045616865158081e-01</leafValues></_>
        <_>
          <internalNodes>
            0 -1 218 1.2046236544847488e-01</internalNodes>
          <leafValues>
            -5.9842001646757126e-02 5.9708732366561890e-01</leafValues></_>
        <_>
          <internalNodes>
            0 -1 265 5.5220797657966614e-03</internalNodes>
          <leafValues>
            9.4222284853458405e-02 -4.5603263378143311e-01</leafValues></_>
        <_>
          <internalNodes>
            0 -1 258 -4.6570063568651676e-04</internalNodes>
          <leafValues>
            3.7114045023918152e-01 -1.2166243791580200e-01</leafValues></_>
        <_>
          <internalNodes>
            0 -1 284 4.9447636120021343e-03</internalNodes>
          <leafValues>
            5.7853877544403076e-02 -6.7288184165954590e-01</leafValues></_>
        <_>
          <internalNodes>
            0 -1 51 -2.0666191994678229e-04</internalNodes>
          <leafValues>
            -3.5779693722724915e-01 9.9328778684139252e-02</leafValues></_></weakClassifiers></_></stages>
  <features>
    <_>
      <rects>
        <_>
          0 0 18 2 -1.</_>
        <_>
          0 1 18 1 2.</_></rects>
      <tilted>0</tilted></_>
    <_>
      <rects>
        <_>
          0 0 23 2 -1.</_>
        <_>
          0 1 23 1 2.</_></rects>
      <tilted>0</tilted></_>
    <_>
      <rects>
        <_>
          0 0 24 2 -1.</_>
        <_>
          0 1 24 1 2.</_></rects>
      <tilted>0</tilted></_>
    <_>
      <rects>
        <_>
          0 1 4 22 -1.</_>
        <_>
          0 1 2 11 2.</_>
        <_>
          2 12 2 11 2.</_></rects>
      <tilted>0</tilted></_>
    <_>
      <rects>
        <_>
          0 1 6 2 -1.</_>
        <_>
          0 1 3 1 2.</_>
        <_>
          3 2 3 1 2.</_></rects>
      <tilted>0</tilted></_>
    <_>
      <rects>
        <_>
          0 2 4 7 -1.</_>
        <_>
          2 2 2 7 2.</_></rects>
      <tilted>0</tilted></_>
    <_>
      <rects>
        <_>
          0 3 2 6 -1.</_>
        <_>
          1 3 1 6 2.</_></rects>
      <tilted>0</tilted></_>
    <_>
      <rects>
        <_>
          0 3 2 20 -1.</_>
        <_>
          0 3 1 10 2.</_>
        <_>
          1 13 1 10 2.</_></rects>
      <tilted>0</tilted></_>
    <_>
      <rects>
        <_>
          0 3 4 16 -1.</_>
        <_>
          2 3 2 16 2.</_></rects>
      <tilted>0</tilted></_>
    <_>
      <rects>
        <_>
          0 3 20 4 -1.</_>
        <_>
          0 4 20 2 2.</_></rects>
      <tilted>0</tilted></_>
    <_>
      <rects>
        <_>
          0 5 2 4 -1.</_>
        <_>
          1 5 1 4 2.</_></rects>
      <tilted>0</tilted></_>
    <_>
      <rects>
        <_>
          0 5 5 4 -1.</_>
        <_>
          0 6 5 2 2.</_></rects>
      <tilted>0</tilted></_>
    <_>
      <rects>
        <_>
          0 7 23 4 -1.</_>
        <_>
          0 8 23 2 2.</_></rects>
      <tilted>0</tilted></_>
    <_>
      <rects>
        <_>
          0 8 8 1 -1.</_>
        <_>
          2 8 4 1 2.</_></rects>
      <tilted>0</tilted></_>
    <_>
      <rects>
        <_>
          0 8 8 6 -1.</_>
        <_>
          2 8 4 6 2.</_></rects>
      <tilted>0</tilted></_>
    <_>
      <rects>
        <_>
          0 8 6 7 -1.</_>
        <_>
          3 8 3 7 2.</_></rects>
      <tilted>0</tilted></_>
    <_>
      <rects>
        <_>
          0 8 6 9 -1.</_>
        <_>
          3 8 3 9 2.</_></rects>
      <tilted>0</tilted></_>
    <_>
      <rects>
        <_>
          0 11 2 4 -1.</_>
        <_>
          0 12 2 2 2.</_></rects>
      <tilted>0</tilted></_>
    <_>
      <rects>
        <_>
          0 12 1 4 -1.</_>
        <_>
          0 13 1 2 2.</_></rects>
      <tilted>0</tilted></_>
    <_>
      <rects>
        <_>
          0 12 1 12 -1.</_>
        <_>
          0 15 1 6 2.</_></rects>
      <tilted>0</tilted></_>
    <_>
      <rects>
        <_>
          0 12 3 4 -1.</_>
        <_>
          0 13 3 2 2.</_></rects>
      <tilted>0</tilted></_>
    <_>
      <rects>
        <_>
          0 13 1 8 -1.</_>
        <_>
          0 15 1 4 2.</_></rects>
      <tilted>0</tilted></_>
    <_>
      <rects>
        <_>
          0 13 4 2 -1.</_>
        <_>
          0 14 4 1 2.</_></rects>
      <tilted>0</tilted></_>
    <_>
      <rects>
        <_>
          0 14 1 8 -1.</_>
        <_>
          0 16 1 4 2.</_></rects>
      <tilted>0</tilted></_>
    <_>
      <rects>
        <_>
          0 16 1 8 -1.</_>
        <_>
          0 18 1 4 2.</_></rects>
      <tilted>0</tilted></_>
    <_>
      <rects>
        <_>
          0 17 1 4 -1.</_>
        <_>
          0 18 1 2 2.</_></rects>
      <tilted>0</tilted></_>
    <_>
      <rects>
        <_>
          0 17 1 4 -1.</_>
        <_>
          0 19 1 2 2.</_></rects>
      <tilted>0</tilted></_>
    <_>
      <rects>
        <_>
          0 18 2 2 -1.</_>
        <_>
          0 18 1 1 2.</_>
        <_>
          1 19 1 1 2.</_></rects>
      <tilted>0</tilted></_>
    <_>
      <rects>
        <_>
          0 18 16 4 -1.</_>
        <_>
          4 18 8 4 2.</_></rects>
      <tilted>0</tilted></_>
    <_>
      <rects>
        <_>
          0 19 23 4 -1.</_>
        <_>
          0 20 23 2 2.</_></rects>
      <tilted>0</tilted></_>
    <_>
      <rects>
        <_>
          0 19 24 4 -1.</_>
        <_>
          0 20 24 2 2.</_></rects>
      <tilted>0</tilted></_>
    <_>
      <rects>
        <_>
          0 22 22 2 -1.</_>
        <_>
          0 22 11 1 2.</_>
        <_>
          11 23 11 1 2.</_></rects>
      <tilted>0</tilted></_>
    <_>
      <rects>
        <_>
          0 22 22 2 -1.</_>
        <_>
          0 23 22 1 2.</_></rects>
      <tilted>0</tilted></_>
    <_>
      <rects>
        <_>
          1 0 18 4 -1.</_>
        <_>
          1 0 9 2 2.</_>
        <_>
          10 2 9 2 2.</_></rects>
      <tilted>0</tilted></_>
    <_>
      <rects>
        <_>
          1 0 21 2 -1.</_>
        <_>
          1 1 21 1 2.</_></rects>
      <tilted>0</tilted></_>
    <_>
      <rects>
        <_>
          1 0 21 4 -1.</_>
        <_>
          1 1 21 2 2.</_></rects>
      <tilted>0</tilted></_>
    <_>
      <rects>
        <_>
          1 1 21 4 -1.</_>
        <_>
          1 2 21 2 2.</_></rects>
      <tilted>0</tilted></_>
    <_>
      <rects>
        <_>
          1 1 23 4 -1.</_>
        <_>
          1 2 23 2 2.</_></rects>
      <tilted>0</tilted></_>
    <_>
      <rects>
        <_>
          1 2 20 4 -1.</_>
        <_>
          1 3 20 2 2.</_></rects>
      <tilted>0</tilted></_>
    <_>
      <rects>
        <_>
          1 3 20 20 -1.</_>
        <_>
          1 3 10 10 2.</_>
        <_>
          11 13 10 10 2.</_></rects>
      <tilted>0</tilted></_>
    <_>
      <rects>
        <_>
          1 3 16 4 -1.</_>
        <_>
          1 5 16 2 2.</_></rects>
      <tilted>0</tilted></_>
    <_>
      <rects>
        <_>
          1 3 16 12 -1.</_>
        <_>
          1 6 16 6 2.</_></rects>
      <tilted>0</tilted></_>
    <_>
      <rects>
        <_>
          1 4 4 8 -1.</_>
        <_>
          1 4 2 4 2.</_>
        <_>
          3 8 2 4 2.</_></rects>
      <tilted>0</tilted></_>
    <_>
      <rects>
        <_>
          1 4 6 3 -1.</_>
        <_>
          4 4 3 3 2.</_></rects>
      <tilted>0</tilted></_>
    <_>
      <rects>
        <_>
          1 4 22 6 -1.</_>
        <_>
          1 7 22 3 2.</_></rects>
      <tilted>0</tilted></_>
    <_>
      <rects>
        <_>
          1 4 23 8 -1.</_>
        <_>
          1 8 23 4 2.</_></rects>
      <tilted>0</tilted></_>
    <_>
      <rects>
        <_>
          1 6 5 4 -1.</_>
        <_>
          1 7 5 2 2.</_></rects>
      <tilted>0</tilted></_>
    <_>
      <rects>
        <_>
          1 10 20 2 -1.</_>
        <_>
          1 11 20 1 2.</_></rects>
      <tilted>0</tilted></_>
    <_>
      <rects>
        <_>
          1 10 22 12 -1.</_>
        <_>
          1 13 22 6 2.</_></rects>
      <tilted>0</tilted></_>
    <_>
      <rects>
        <_>
          1 12 1 8 -1.</_>
        <_>
          1 16 1 4 2.</_></rects>
      <tilted>0</tilted></_>
    <_>
      <rects>
        <_>
          1 16 3 1 -1.</_>
        <_>
          2 17 1 1 3.</_></rects>
      <tilted>1</tilted></_>
    <_>
      <rects>
        <_>
          1 18 2 2 -1.</_>
        <_>
          1 18 1 1 2.</_>
        <_>
          2 19 1 1 2.</_></rects>
      <tilted>0</tilted></_>
    <_>
      <rects>
        <_>
          1 18 20 5 -1.</_>
        <_>
          11 18 10 5 2.</_></rects>
      <tilted>0</tilted></_>
    <_>
      <rects>
        <_>
          1 19 22 4 -1.</_>
        <_>
          1 20 22 2 2.</_></rects>
      <tilted>0</tilted></_>
    <_>
      <rects>
        <_>
          1 20 20 1 -1.</_>
        <_>
          11 20 10 1 2.</_></rects>
      <tilted>0</tilted></_>
    <_>
      <rects>
        <_>
          1 20 20 4 -1.</_>
        <_>
          1 20 10 2 2.</_>
        <_>
          11 22 10 2 2.</_></rects>
      <tilted>0</tilted></_>
    <_>
      <rects>
        <_>
          1 22 16 2 -1.</_>
        <_>
          1 22 8 1 2.</_>
        <_>
          9 23 8 1 2.</_></rects>
      <tilted>0</tilted></_>
    <_>
      <rects>
        <_>
          1 22 22 2 -1.</_>
        <_>
          1 22 11 1 2.</_>
        <_>
          12 23 11 1 2.</_></rects>
      <tilted>0</tilted></_>
    <_>
      <rects>
        <_>
          1 22 23 2 -1.</_>
        <_>
          1 23 23 1 2.</_></rects>
      <tilted>0</tilted></_>
    <_>
      <rects>
        <_>
          2 0 1 4 -1.</_>
        <_>
          2 2 1 2 2.</_></rects>
      <tilted>0</tilted></_>
    <_>
      <rects>
        <_>
          2 0 4 4 -1.</_>
        <_>
          3 0 2 4 2.</_></rects>
      <tilted>0</tilted></_>
    <_>
      <rects>
        <_>
          2 0 3 2 -1.</_>
        <_>
          2 0 3 1 2.</_></rects>
      <tilted>1</tilted></_>
    <_>
      <rects>
        <_>
          2 0 5 2 -1.</_>
        <_>
          2 0 5 1 2.</_></rects>
      <tilted>1</tilted></_>
    <_>
      <rects>
        <_>
          2 0 18 2 -1.</_>
        <_>
          2 0 9 1 2.</_>
        <_>
          11 1 9 1 2.</_></rects>
      <tilted>0</tilted></_>
    <_>
      <rects>
        <_>
          2 1 3 2 -1.</_>
        <_>
          2 2 3 1 2.</_></rects>
      <tilted>0</tilted></_>
    <_>
      <rects>
        <_>
          2 1 18 4 -1.</_>
        <_>
          2 2 18 2 2.</_></rects>
      <tilted>0</tilted></_>
    <_>
      <rects>
        <_>
          2 3 3 1 -1.</_>
        <_>
          3 3 1 1 2.</_></rects>
      <tilted>0</tilted></_>
    <_>
      <rects>
        <_>
          2 3 17 2 -1.</_>
        <_>
          2 3 17 1 2.</_></rects>
      <tilted>1</tilted></_>
    <_>
      <rects>
        <_>
          2 4 2 4 -1.</_>
        <_>
          2 5 2 2 2.</_></rects>
      <tilted>0</tilted></_>
    <_>
      <rects>
        <_>
          2 6 3 8 -1.</_>
        <_>
          2 10 3 4 2.</_></rects>
      <tilted>0</tilted></_>
    <_>
      <rects>
        <_>
          2 7 13 4 -1.</_>
        <_>
          2 8 13 2 2.</_></rects>
      <tilted>0</tilted></_>
    <_>
      <rects>
        <_>
          2 11 4 3 -1.</_>
        <_>
          3 11 2 3 2.</_></rects>
      <tilted>0</tilted></_>
    <_>
      <rects>
        <_>
          2 12 8 3 -1.</_>
        <_>
          4 12 4 3 2.</_></rects>
      <tilted>0</tilted></_>
    <_>
      <rects>
        <_>
          2 14 4 2 -1.</_>
        <_>
          3 14 2 2 2.</_></rects>
      <tilted>0</tilted></_>
    <_>
      <rects>
        <_>
          2 19 21 4 -1.</_>
        <_>
          2 20 21 2 2.</_></rects>
      <tilted>0</tilted></_>
    <_>
      <rects>
        <_>
          2 20 20 4 -1.</_>
        <_>
          2 22 20 2 2.</_></rects>
      <tilted>0</tilted></_>
    <_>
      <rects>
        <_>
          2 21 11 2 -1.</_>
        <_>
          2 22 11 1 2.</_></rects>
      <tilted>0</tilted></_>
    <_>
      <rects>
        <_>
          2 22 16 2 -1.</_>
        <_>
          2 22 8 1 2.</_>
        <_>
          10 23 8 1 2.</_></rects>
      <tilted>0</tilted></_>
    <_>
      <rects>
        <_>
          2 22 18 2 -1.</_>
        <_>
          2 22 9 1 2.</_>
        <_>
          11 23 9 1 2.</_></rects>
      <tilted>0</tilted></_>
    <_>
      <rects>
        <_>
          2 22 21 2 -1.</_>
        <_>
          2 23 21 1 2.</_></rects>
      <tilted>0</tilted></_>
    <_>
      <rects>
        <_>
          3 0 20 1 -1.</_>
        <_>
          8 0 10 1 2.</_></rects>
      <tilted>0</tilted></_>
    <_>
      <rects>
        <_>
          3 0 20 2 -1.</_>
        <_>
          3 1 20 1 2.</_></rects>
      <tilted>0</tilted></_>
    <_>
      <rects>
        <_>
          3 1 4 1 -1.</_>
        <_>
          4 2 2 1 2.</_></rects>
      <tilted>1</tilted></_>
    <_>
      <rects>
        <_>
          3 1 16 2 -1.</_>
        <_>
          3 1 8 1 2.</_>
        <_>
          11 2 8 1 2.</_></rects>
      <tilted>0</tilted></_>
    <_>
      <rects>
        <_>
          3 1 16 20 -1.</_>
        <_>
          3 1 8 10 2.</_>
        <_>
          11 11 8 10 2.</_></rects>
      <tilted>0</tilted></_>
    <_>
      <rects>
        <_>
          3 3 17 12 -1.</_>
        <_>
          3 6 17 6 2.</_></rects>
      <tilted>0</tilted></_>
    <_>
      <rects>
        <_>
          3 3 20 12 -1.</_>
        <_>
          3 6 20 6 2.</_></rects>
      <tilted>0</tilted></_>
    <_>
      <rects>
        <_>
          3 6 4 18 -1.</_>
        <_>
          3 6 2 9 2.</_>
        <_>
          5 15 2 9 2.</_></rects>
      <tilted>0</tilted></_>
    <_>
      <rects>
        <_>
          3 6 10 1 -1.</_>
        <_>
          8 6 5 1 2.</_></rects>
      <tilted>0</tilted></_>
    <_>
      <rects>
        <_>
          3 7 5 3 -1.</_>
        <_>
          2 8 5 1 3.</_></rects>
      <tilted>1</tilted></_>
    <_>
      <rects>
        <_>
          3 8 8 3 -1.</_>
        <_>
          5 8 4 3 2.</_></rects>
      <tilted>0</tilted></_>
    <_>
      <rects>
        <_>
          3 10 10 10 -1.</_>
        <_>
          3 10 5 5 2.</_>
        <_>
          8 15 5 5 2.</_></rects>
      <tilted>0</tilted></_>
    <_>
      <rects>
        <_>
          3 10 11 2 -1.</_>
        <_>
          3 11 11 1 2.</_></rects>
      <tilted>0</tilted></_>
    <_>
      <rects>
        <_>
          3 11 4 3 -1.</_>
        <_>
          4 11 2 3 2.</_></rects>
      <tilted>0</tilted></_>
    <_>
      <rects>
        <_>
          3 12 4 2 -1.</_>
        <_>
          4 12 2 2 2.</_></rects>
      <tilted>0</tilted></_>
    <_>
      <rects>
        <_>
          3 12 12 10 -1.</_>
        <_>
          3 12 6 5 2.</_>
        <_>
          9 17 6 5 2.</_></rects>
      <tilted>0</tilted></_>
    <_>
      <rects>
        <_>
          3 15 6 6 -1.</_>
        <_>
          3 15 3 3 2.</_>
        <_>
          6 18 3 3 2.</_></rects>
      <tilted>0</tilted></_>
    <_>
      <rects>
        <_>
          3 17 4 2 -1.</_>
        <_>
          3 17 2 2 2.</_></rects>
      <tilted>1</tilted></_>
    <_>
      <rects>
        <_>
          3 20 18 4 -1.</_>
        <_>
          3 22 18 2 2.</_></rects>
      <tilted>0</tilted></_>
    <_>
      <rects>
        <_>
          3 20 19 4 -1.</_>
        <_>
          3 22 19 2 2.</_></rects>
      <tilted>0</tilted></_>
    <_>
      <rects>
        <_>
          3 21 2 2 -1.</_>
        <_>
          3 21 1 1 2.</_>
        <_>
          4 22 1 1 2.</_></rects>
      <tilted>0</tilted></_>
    <_>
      <rects>
        <_>
          3 22 4 1 -1.</_>
        <_>
          4 22 2 1 2.</_></rects>
      <tilted>0</tilted></_>
    <_>
      <rects>
        <_>
          3 22 20 2 -1.</_>
        <_>
          3 22 10 1 2.</_>
        <_>
          13 23 10 1 2.</_></rects>
      <tilted>0</tilted></_>
    <_>
      <rects>
        <_>
          3 22 19 2 -1.</_>
        <_>
          3 23 19 1 2.</_></rects>
      <tilted>0</tilted></_>
    <_>
      <rects>
        <_>
          4 0 4 2 -1.</_>
        <_>
          4 1 4 1 2.</_></rects>
      <tilted>0</tilted></_>
    <_>
      <rects>
        <_>
          4 0 19 4 -1.</_>
        <_>
          4 1 19 2 2.</_></rects>
      <tilted>0</tilted></_>
    <_>
      <rects>
        <_>
          4 2 2 5 -1.</_>
        <_>
          5 2 1 5 2.</_></rects>
      <tilted>0</tilted></_>
    <_>
      <rects>
        <_>
          4 2 13 12 -1.</_>
        <_>
          4 5 13 6 2.</_></rects>
      <tilted>0</tilted></_>
    <_>
      <rects>
        <_>
          4 3 1 2 -1.</_>
        <_>
          4 4 1 1 2.</_></rects>
      <tilted>0</tilted></_>
    <_>
      <rects>
        <_>
          4 4 15 4 -1.</_>
        <_>
          4 6 15 2 2.</_></rects>
      <tilted>0</tilted></_>
    <_>
      <rects>
        <_>
          4 6 12 3 -1.</_>
        <_>
          4 6 6 3 2.</_></rects>
      <tilted>1</tilted></_>
    <_>
      <rects>
        <_>
          4 6 14 4 -1.</_>
        <_>
          4 8 14 2 2.</_></rects>
      <tilted>0</tilted></_>
    <_>
      <rects>
        <_>
          4 7 8 5 -1.</_>
        <_>
          6 7 4 5 2.</_></rects>
      <tilted>0</tilted></_>
    <_>
      <rects>
        <_>
          4 7 8 6 -1.</_>
        <_>
          6 7 4 6 2.</_></rects>
      <tilted>0</tilted></_>
    <_>
      <rects>
        <_>
          4 9 12 12 -1.</_>
        <_>
          4 9 6 6 2.</_>
        <_>
          10 15 6 6 2.</_></rects>
      <tilted>0</tilted></_>
    <_>
      <rects>
        <_>
          4 13 4 8 -1.</_>
        <_>
          5 13 2 8 2.</_></rects>
      <tilted>0</tilted></_>
    <_>
      <rects>
        <_>
          4 16 12 6 -1.</_>
        <_>
          4 16 6 3 2.</_>
        <_>
          10 19 6 3 2.</_></rects>
      <tilted>0</tilted></_>
    <_>
      <rects>
        <_>
          4 20 18 4 -1.</_>
        <_>
          4 20 9 2 2.</_>
        <_>
          13 22 9 2 2.</_></rects>
      <tilted>0</tilted></_>
    <_>
      <rects>
        <_>
          5 0 2 4 -1.</_>
        <_>
          5 0 1 4 2.</_></rects>
      <tilted>1</tilted></_>
    <_>
      <rects>
        <_>
          5 0 4 5 -1.</_>
        <_>
          6 1 2 5 2.</_></rects>
      <tilted>1</tilted></_>
    <_>
      <rects>
        <_>
          5 0 12 1 -1.</_>
        <_>
          8 0 6 1 2.</_></rects>
      <tilted>0</tilted></_>
    <_>
      <rects>
        <_>
          5 0 12 2 -1.</_>
        <_>
          5 0 6 1 2.</_>
        <_>
          11 1 6 1 2.</_></rects>
      <tilted>0</tilted></_>
    <_>
      <rects>
        <_>
          5 0 14 4 -1.</_>
        <_>
          5 0 7 2 2.</_>
        <_>
          12 2 7 2 2.</_></rects>
      <tilted>0</tilted></_>
    <_>
      <rects>
        <_>
          5 0 14 2 -1.</_>
        <_>
          5 1 14 1 2.</_></rects>
      <tilted>0</tilted></_>
    <_>
      <rects>
        <_>
          5 1 10 2 -1.</_>
        <_>
          5 1 5 1 2.</_>
        <_>
          10 2 5 1 2.</_></rects>
      <tilted>0</tilted></_>
    <_>
      <rects>
        <_>
          5 2 9 2 -1.</_>
        <_>
          8 2 3 2 2.</_></rects>
      <tilted>0</tilted></_>
    <_>
      <rects>
        <_>
          5 4 18 4 -1.</_>
        <_>
          5 6 18 2 2.</_></rects>
      <tilted>0</tilted></_>
    <_>
      <rects>
        <_>
          5 7 4 4 -1.</_>
        <_>
          4 8 4 2 2.</_></rects>
      <tilted>1</tilted></_>
    <_>
      <rects>
        <_>
          5 7 11 4 -1.</_>
        <_>
          5 8 11 2 2.</_></rects>
      <tilted>0</tilted></_>
    <_>
      <rects>
        <_>
          5 9 6 1 -1.</_>
        <_>
          7 9 2 1 2.</_></rects>
      <tilted>0</tilted></_>
    <_>
      <rects>
        <_>
          5 13 4 2 -1.</_>
        <_>
          5 14 4 1 2.</_></rects>
      <tilted>0</tilted></_>
    <_>
      <rects>
        <_>
          5 15 8 2 -1.</_>
        <_>
          5 15 4 1 2.</_>
        <_>
          9 16 4 1 2.</_></rects>
      <tilted>0</tilted></_>
    <_>
      <rects>
        <_>
          5 18 7 4 -1.</_>
        <_>
          5 19 7 2 2.</_></rects>
      <tilted>0</tilted></_>
    <_>
      <rects>
        <_>
          5 18 16 4 -1.</_>
        <_>
          13 18 8 4 2.</_></rects>
      <tilted>0</tilted></_>
    <_>
      <rects>
        <_>
          5 22 2 2 -1.</_>
        <_>
          5 23 2 1 2.</_></rects>
      <tilted>0</tilted></_>
    <_>
      <rects>
        <_>
          6 0 4 4 -1.</_>
        <_>
          7 0 2 4 2.</_></rects>
      <tilted>0</tilted></_>
    <_>
      <rects>
        <_>
          6 0 6 5 -1.</_>
        <_>
          8 2 2 5 3.</_></rects>
      <tilted>1</tilted></_>
    <_>
      <rects>
        <_>
          6 0 11 2 -1.</_>
        <_>
          6 1 11 1 2.</_></rects>
      <tilted>0</tilted></_>
    <_>
      <rects>
        <_>
          6 1 10 2 -1.</_>
        <_>
          6 1 5 1 2.</_>
        <_>
          11 2 5 1 2.</_></rects>
      <tilted>0</tilted></_>
    <_>
      <rects>
        <_>
          6 2 5 9 -1.</_>
        <_>
          6 5 5 3 2.</_></rects>
      <tilted>0</tilted></_>
    <_>
      <rects>
        <_>
          6 3 1 2 -1.</_>
        <_>
          6 4 1 1 2.</_></rects>
      <tilted>0</tilted></_>
    <_>
      <rects>
        <_>
          6 3 1 3 -1.</_>
        <_>
          5 4 1 1 3.</_></rects>
      <tilted>1</tilted></_>
    <_>
      <rects>
        <_>
          6 6 10 16 -1.</_>
        <_>
          6 6 5 8 2.</_>
        <_>
          11 14 5 8 2.</_></rects>
      <tilted>0</tilted></_>
    <_>
      <rects>
        <_>
          6 6 12 16 -1.</_>
        <_>
          6 6 6 8 2.</_>
        <_>
          12 14 6 8 2.</_></rects>
      <tilted>0</tilted></_>
    <_>
      <rects>
        <_>
          6 9 6 1 -1.</_>
        <_>
          9 9 3 1 2.</_></rects>
      <tilted>0</tilted></_>
    <_>
      <rects>
        <_>
          6 10 3 2 -1.</_>
        <_>
          7 10 1 2 2.</_></rects>
      <tilted>0</tilted></_>
    <_>
      <rects>
        <_>
          6 11 12 9 -1.</_>
        <_>
          10 14 4 3 9.</_></rects>
      <tilted>0</tilted></_>
    <_>
      <rects>
        <_>
          6 16 3 2 -1.</_>
        <_>
          7 17 1 2 3.</_></rects>
      <tilted>1</tilted></_>
    <_>
      <rects>
        <_>
          6 21 4 3 -1.</_>
        <_>
          7 21 2 3 2.</_></rects>
      <tilted>0</tilted></_>
    <_>
      <rects>
        <_>
          6 22 18 2 -1.</_>
        <_>
          6 22 9 1 2.</_>
        <_>
          15 23 9 1 2.</_></rects>
      <tilted>0</tilted></_>
    <_>
      <rects>
        <_>
          7 0 6 3 -1.</_>
        <_>
          9 1 2 1 9.</_></rects>
      <tilted>0</tilted></_>
    <_>
      <rects>
        <_>
          7 0 7 2 -1.</_>
        <_>
          7 1 7 1 2.</_></rects>
      <tilted>0</tilted></_>
    <_>
      <rects>
        <_>
          7 5 8 4 -1.</_>
        <_>
          7 6 8 2 2.</_></rects>
      <tilted>0</tilted></_>
    <_>
      <rects>
        <_>
          7 7 10 4 -1.</_>
        <_>
          12 7 5 4 2.</_></rects>
      <tilted>0</tilted></_>
    <_>
      <rects>
        <_>
          7 8 17 4 -1.</_>
        <_>
          7 9 17 2 2.</_></rects>
      <tilted>0</tilted></_>
    <_>
      <rects>
        <_>
          7 9 5 3 -1.</_>
        <_>
          6 10 5 1 3.</_></rects>
      <tilted>1</tilted></_>
    <_>
      <rects>
        <_>
          7 11 4 2 -1.</_>
        <_>
          9 11 2 2 2.</_></rects>
      <tilted>0</tilted></_>
    <_>
      <rects>
        <_>
          7 15 6 2 -1.</_>
        <_>
          7 15 3 1 2.</_>
        <_>
          10 16 3 1 2.</_></rects>
      <tilted>0</tilted></_>
    <_>
      <rects>
        <_>
          7 18 3 1 -1.</_>
        <_>
          8 19 1 1 3.</_></rects>
      <tilted>1</tilted></_>
    <_>
      <rects>
        <_>
          7 21 14 1 -1.</_>
        <_>
          14 21 7 1 2.</_></rects>
      <tilted>0</tilted></_>
    <_>
      <rects>
        <_>
          7 23 4 1 -1.</_>
        <_>
          8 23 2 1 2.</_></rects>
      <tilted>0</tilted></_>
    <_>
      <rects>
        <_>
          8 0 4 3 -1.</_>
        <_>
          9 0 2 3 2.</_></rects>
      <tilted>0</tilted></_>
    <_>
      <rects>
        <_>
          8 0 12 2 -1.</_>
        <_>
          8 1 12 1 2.</_></rects>
      <tilted>0</tilted></_>
    <_>
      <rects>
        <_>
          8 0 15 8 -1.</_>
        <_>
          8 0 15 4 2.</_></rects>
      <tilted>1</tilted></_>
    <_>
      <rects>
        <_>
          8 5 6 4 -1.</_>
        <_>
          8 6 6 2 2.</_></rects>
      <tilted>0</tilted></_>
    <_>
      <rects>
        <_>
          8 5 7 4 -1.</_>
        <_>
          8 6 7 2 2.</_></rects>
      <tilted>0</tilted></_>
    <_>
      <rects>
        <_>
          8 6 8 3 -1.</_>
        <_>
          10 6 4 3 2.</_></rects>
      <tilted>0</tilted></_>
    <_>
      <rects>
        <_>
          8 6 5 2 -1.</_>
        <_>
          8 7 5 1 2.</_></rects>
      <tilted>0</tilted></_>
    <_>
      <rects>
        <_>
          8 7 7 4 -1.</_>
        <_>
          8 8 7 2 2.</_></rects>
      <tilted>0</tilted></_>
    <_>
      <rects>
        <_>
          8 8 8 6 -1.</_>
        <_>
          8 8 4 6 2.</_></rects>
      <tilted>1</tilted></_>
    <_>
      <rects>
        <_>
          8 8 8 16 -1.</_>
        <_>
          8 12 8 8 2.</_></rects>
      <tilted>0</tilted></_>
    <_>
      <rects>
        <_>
          8 9 4 2 -1.</_>
        <_>
          10 9 2 2 2.</_></rects>
      <tilted>0</tilted></_>
    <_>
      <rects>
        <_>
          8 12 2 2 -1.</_>
        <_>
          8 12 1 1 2.</_>
        <_>
          9 13 1 1 2.</_></rects>
      <tilted>0</tilted></_>
    <_>
      <rects>
        <_>
          8 13 6 2 -1.</_>
        <_>
          8 13 3 2 2.</_></rects>
      <tilted>1</tilted></_>
    <_>
      <rects>
        <_>
          8 14 3 4 -1.</_>
        <_>
          8 15 3 2 2.</_></rects>
      <tilted>0</tilted></_>
    <_>
      <rects>
        <_>
          8 16 4 6 -1.</_>
        <_>
          9 16 2 6 2.</_></rects>
      <tilted>0</tilted></_>
    <_>
      <rects>
        <_>
          8 17 3 4 -1.</_>
        <_>
          9 18 1 4 3.</_></rects>
      <tilted>1</tilted></_>
    <_>
      <rects>
        <_>
          8 18 8 6 -1.</_>
        <_>
          8 21 8 3 2.</_></rects>
      <tilted>0</tilted></_>
    <_>
      <rects>
        <_>
          8 20 8 4 -1.</_>
        <_>
          8 21 8 2 2.</_></rects>
      <tilted>0</tilted></_>
    <_>
      <rects>
        <_>
          8 20 8 4 -1.</_>
        <_>
          8 22 8 2 2.</_></rects>
      <tilted>0</tilted></_>
    <_>
      <rects>
        <_>
          8 21 8 2 -1.</_>
        <_>
          8 21 4 1 2.</_>
        <_>
          12 22 4 1 2.</_></rects>
      <tilted>0</tilted></_>
    <_>
      <rects>
        <_>
          8 22 12 2 -1.</_>
        <_>
          8 22 6 1 2.</_>
        <_>
          14 23 6 1 2.</_></rects>
      <tilted>0</tilted></_>
    <_>
      <rects>
        <_>
          8 22 14 2 -1.</_>
        <_>
          8 22 7 1 2.</_>
        <_>
          15 23 7 1 2.</_></rects>
      <tilted>0</tilted></_>
    <_>
      <rects>
        <_>
          9 0 10 2 -1.</_>
        <_>
          9 0 5 1 2.</_>
        <_>
          14 1 5 1 2.</_></rects>
      <tilted>0</tilted></_>
    <_>
      <rects>
        <_>
          9 0 10 4 -1.</_>
        <_>
          9 0 5 2 2.</_>
        <_>
          14 2 5 2 2.</_></rects>
      <tilted>0</tilted></_>
    <_>
      <rects>
        <_>
          9 2 4 16 -1.</_>
        <_>
          10 2 2 16 2.</_></rects>
      <tilted>0</tilted></_>
    <_>
      <rects>
        <_>
          9 4 4 19 -1.</_>
        <_>
          10 4 2 19 2.</_></rects>
      <tilted>0</tilted></_>
    <_>
      <rects>
        <_>
          9 6 3 8 -1.</_>
        <_>
          10 7 1 8 3.</_></rects>
      <tilted>1</tilted></_>
    <_>
      <rects>
        <_>
          9 8 3 3 -1.</_>
        <_>
          10 9 1 1 9.</_></rects>
      <tilted>0</tilted></_>
    <_>
      <rects>
        <_>
          9 8 1 12 -1.</_>
        <_>
          9 14 1 6 2.</_></rects>
      <tilted>0</tilted></_>
    <_>
      <rects>
        <_>
          9 9 5 6 -1.</_>
        <_>
          7 11 5 2 3.</_></rects>
      <tilted>1</tilted></_>
    <_>
      <rects>
        <_>
          9 14 8 10 -1.</_>
        <_>
          9 19 8 5 2.</_></rects>
      <tilted>0</tilted></_>
    <_>
      <rects>
        <_>
          9 15 10 4 -1.</_>
        <_>
          14 15 5 4 2.</_></rects>
      <tilted>0</tilted></_>
    <_>
      <rects>
        <_>
          9 18 5 6 -1.</_>
        <_>
          9 21 5 3 2.</_></rects>
      <tilted>0</tilted></_>
    <_>
      <rects>
        <_>
          9 20 6 4 -1.</_>
        <_>
          9 21 6 2 2.</_></rects>
      <tilted>0</tilted></_>
    <_>
      <rects>
        <_>
          10 0 2 2 -1.</_>
        <_>
          10 1 2 1 2.</_></rects>
      <tilted>0</tilted></_>
    <_>
      <rects>
        <_>
          10 0 2 12 -1.</_>
        <_>
          10 4 2 4 2.</_></rects>
      <tilted>0</tilted></_>
    <_>
      <rects>
        <_>
          10 3 4 5 -1.</_>
        <_>
          11 3 2 5 2.</_></rects>
      <tilted>0</tilted></_>
    <_>
      <rects>
        <_>
          10 5 2 4 -1.</_>
        <_>
          10 6 2 2 2.</_></rects>
      <tilted>0</tilted></_>
    <_>
      <rects>
        <_>
          10 5 8 6 -1.</_>
        <_>
          8 7 8 2 3.</_></rects>
      <tilted>1</tilted></_>
    <_>
      <rects>
        <_>
          10 9 1 10 -1.</_>
        <_>
          10 9 1 5 2.</_></rects>
      <tilted>1</tilted></_>
    <_>
      <rects>
        <_>
          10 10 2 2 -1.</_>
        <_>
          10 10 1 1 2.</_>
        <_>
          11 11 1 1 2.</_></rects>
      <tilted>0</tilted></_>
    <_>
      <rects>
        <_>
          10 10 12 12 -1.</_>
        <_>
          10 10 6 6 2.</_>
        <_>
          16 16 6 6 2.</_></rects>
      <tilted>0</tilted></_>
    <_>
      <rects>
        <_>
          10 11 12 8 -1.</_>
        <_>
          10 13 12 4 2.</_></rects>
      <tilted>0</tilted></_>
    <_>
      <rects>
        <_>
          10 14 2 4 -1.</_>
        <_>
          10 15 2 2 2.</_></rects>
      <tilted>0</tilted></_>
    <_>
      <rects>
        <_>
          10 14 4 2 -1.</_>
        <_>
          10 14 2 1 2.</_>
        <_>
          12 15 2 1 2.</_></rects>
      <tilted>0</tilted></_>
    <_>
      <rects>
        <_>
          10 14 3 4 -1.</_>
        <_>
          10 15 3 2 2.</_></rects>
      <tilted>0</tilted></_>
    <_>
      <rects>
        <_>
          10 18 4 5 -1.</_>
        <_>
          11 18 2 5 2.</_></rects>
      <tilted>0</tilted></_>
    <_>
      <rects>
        <_>
          10 20 5 4 -1.</_>
        <_>
          10 21 5 2 2.</_></rects>
      <tilted>0</tilted></_>
    <_>
      <rects>
        <_>
          11 0 1 12 -1.</_>
        <_>
          11 4 1 4 2.</_></rects>
      <tilted>0</tilted></_>
    <_>
      <rects>
        <_>
          11 0 12 4 -1.</_>
        <_>
          11 0 6 4 2.</_></rects>
      <tilted>1</tilted></_>
    <_>
      <rects>
        <_>
          11 1 4 3 -1.</_>
        <_>
          12 1 2 3 2.</_></rects>
      <tilted>0</tilted></_>
    <_>
      <rects>
        <_>
          11 9 2 2 -1.</_>
        <_>
          11 9 1 1 2.</_>
        <_>
          12 10 1 1 2.</_></rects>
      <tilted>0</tilted></_>
    <_>
      <rects>
        <_>
          11 10 3 4 -1.</_>
        <_>
          10 11 3 2 2.</_></rects>
      <tilted>1</tilted></_>
    <_>
      <rects>
        <_>
          11 13 3 4 -1.</_>
        <_>
          11 14 3 2 2.</_></rects>
      <tilted>0</tilted></_>
    <_>
      <rects>
        <_>
          11 15 2 4 -1.</_>
        <_>
          11 16 2 2 2.</_></rects>
      <tilted>0</tilted></_>
    <_>
      <rects>
        <_>
          11 17 12 5 -1.</_>
        <_>
          17 17 6 5 2.</_></rects>
      <tilted>0</tilted></_>
    <_>
      <rects>
        <_>
          11 21 5 2 -1.</_>
        <_>
          11 22 5 1 2.</_></rects>
      <tilted>0</tilted></_>
    <_>
      <rects>
        <_>
          12 2 12 22 -1.</_>
        <_>
          12 2 6 11 2.</_>
        <_>
          18 13 6 11 2.</_></rects>
      <tilted>0</tilted></_>
    <_>
      <rects>
        <_>
          12 5 2 4 -1.</_>
        <_>
          12 7 2 2 2.</_></rects>
      <tilted>0</tilted></_>
    <_>
      <rects>
        <_>
          12 7 6 6 -1.</_>
        <_>
          12 7 3 3 2.</_>
        <_>
          15 10 3 3 2.</_></rects>
      <tilted>0</tilted></_>
    <_>
      <rects>
        <_>
          12 8 2 4 -1.</_>
        <_>
          12 9 2 2 2.</_></rects>
      <tilted>0</tilted></_>
    <_>
      <rects>
        <_>
          12 11 5 4 -1.</_>
        <_>
          12 12 5 2 2.</_></rects>
      <tilted>0</tilted></_>
    <_>
      <rects>
        <_>
          12 11 10 6 -1.</_>
        <_>
          12 11 5 3 2.</_>
        <_>
          17 14 5 3 2.</_></rects>
      <tilted>0</tilted></_>
    <_>
      <rects>
        <_>
          12 13 4 3 -1.</_>
        <_>
          12 13 2 3 2.</_></rects>
      <tilted>1</tilted></_>
    <_>
      <rects>
        <_>
          12 15 6 2 -1.</_>
        <_>
          12 15 3 1 2.</_>
        <_>
          15 16 3 1 2.</_></rects>
      <tilted>0</tilted></_>
    <_>
      <rects>
        <_>
          12 20 2 4 -1.</_>
        <_>
          12 22 2 2 2.</_></rects>
      <tilted>0</tilted></_>
    <_>
      <rects>
        <_>
          13 0 4 2 -1.</_>
        <_>
          13 1 4 1 2.</_></rects>
      <tilted>0</tilted></_>
    <_>
      <rects>
        <_>
          13 2 7 2 -1.</_>
        <_>
          13 3 7 1 2.</_></rects>
      <tilted>0</tilted></_>
    <_>
      <rects>
        <_>
          13 16 4 7 -1.</_>
        <_>
          14 16 2 7 2.</_></rects>
      <tilted>0</tilted></_>
    <_>
      <rects>
        <_>
          14 0 4 3 -1.</_>
        <_>
          15 0 2 3 2.</_></rects>
      <tilted>0</tilted></_>
    <_>
      <rects>
        <_>
          14 0 2 4 -1.</_>
        <_>
          15 0 1 4 2.</_></rects>
      <tilted>0</tilted></_>
    <_>
      <rects>
        <_>
          14 0 10 4 -1.</_>
        <_>
          14 0 5 2 2.</_>
        <_>
          19 2 5 2 2.</_></rects>
      <tilted>0</tilted></_>
    <_>
      <rects>
        <_>
          14 0 7 6 -1.</_>
        <_>
          14 2 7 2 2.</_></rects>
      <tilted>0</tilted></_>
    <_>
      <rects>
        <_>
          14 1 4 1 -1.</_>
        <_>
          15 2 2 1 2.</_></rects>
      <tilted>1</tilted></_>
    <_>
      <rects>
        <_>
          14 1 3 4 -1.</_>
        <_>
          14 2 3 2 2.</_></rects>
      <tilted>0</tilted></_>
    <_>
      <rects>
        <_>
          14 6 1 18 -1.</_>
        <_>
          14 15 1 9 2.</_></rects>
      <tilted>0</tilted></_>
    <_>
      <rects>
        <_>
          14 8 2 2 -1.</_>
        <_>
          14 8 1 1 2.</_>
        <_>
          15 9 1 1 2.</_></rects>
      <tilted>0</tilted></_>
    <_>
      <rects>
        <_>
          14 8 8 4 -1.</_>
        <_>
          13 9 8 2 2.</_></rects>
      <tilted>1</tilted></_>
    <_>
      <rects>
        <_>
          14 11 4 6 -1.</_>
        <_>
          14 11 2 3 2.</_>
        <_>
          16 14 2 3 2.</_></rects>
      <tilted>0</tilted></_>
    <_>
      <rects>
        <_>
          15 3 8 7 -1.</_>
        <_>
          17 5 4 7 2.</_></rects>
      <tilted>1</tilted></_>
    <_>
      <rects>
        <_>
          15 8 4 12 -1.</_>
        <_>
          11 12 4 4 3.</_></rects>
      <tilted>1</tilted></_>
    <_>
      <rects>
        <_>
          15 9 8 6 -1.</_>
        <_>
          17 9 4 6 2.</_></rects>
      <tilted>0</tilted></_>
    <_>
      <rects>
        <_>
          15 11 4 6 -1.</_>
        <_>
          15 11 2 3 2.</_>
        <_>
          17 14 2 3 2.</_></rects>
      <tilted>0</tilted></_>
    <_>
      <rects>
        <_>
          15 12 4 2 -1.</_>
        <_>
          16 12 2 2 2.</_></rects>
      <tilted>0</tilted></_>
    <_>
      <rects>
        <_>
          15 13 4 4 -1.</_>
        <_>
          15 13 2 2 2.</_>
        <_>
          17 15 2 2 2.</_></rects>
      <tilted>0</tilted></_>
    <_>
      <rects>
        <_>
          15 14 4 4 -1.</_>
        <_>
          15 14 2 2 2.</_>
        <_>
          17 16 2 2 2.</_></rects>
      <tilted>0</tilted></_>
    <_>
      <rects>
        <_>
          16 6 8 10 -1.</_>
        <_>
          16 6 4 10 2.</_></rects>
      <tilted>1</tilted></_>
    <_>
