<?xml version="1.0"?>
<opencv_storage>
<cascade>
  <stageType>BOOST</stageType>
  <featureType>HAAR</featureType>
  <height>24</height>
  <width>24</width>
  <stageParams>
    <boostType>GAB</boostType>
    <minHitRate>9.9500000476837158e-01</minHitRate>
    <maxFalseAlarm>5.0000000000000000e-01</maxFalseAlarm>
    <weightTrimRate>9.4999999999999996e-01</weightTrimRate>
    <maxDepth>1</maxDepth>
    <maxWeakCount>100</maxWeakCount></stageParams>
  <featureParams>
    <maxCatCount>0</maxCatCount>
    <featSize>1</featSize>
    <mode>BASIC</mode></featureParams>
  <stageNum>10</stageNum>
  <stages>
    <!-- stage 0 -->
    <_>
      <maxWeakCount>7</maxWeakCount>
      <stageThreshold>-1.8238224983215332e+00</stageThreshold>
      <weakClassifiers>
        <_>
          <internalNodes>
            0 -1 47 8.8804438710212708e-03</internalNodes>
          <leafValues>
            -7.0630818605422974e-01 8.2332158088684082e-01</leafValues></_>
        <_>
          <internalNodes>
            0 -1 41 -8.9701674878597260e-03</internalNodes>
          <leafValues>
            8.2354134321212769e-01 -4.6098124980926514e-01</leafValues></_>
        <_>
          <internalNodes>
            0 -1 115 -2.4243835359811783e-02</internalNodes>
          <leafValues>
            -6.8951761722564697e-01 5.3561812639236450e-01</leafValues></_>
        <_>
          <internalNodes>
            0 -1 81 5.3467992693185806e-03</internalNodes>
          <leafValues>
            -5.3536075353622437e-01 4.8378804326057434e-01</leafValues></_>
        <_>
          <internalNodes>
            0 -1 61 1.6791959060356021e-03</internalNodes>
          <leafValues>
            -2.9385995864868164e-01 6.9329631328582764e-01</leafValues></_>
        <_>
          <internalNodes>
            0 -1 131 -1.9701612181961536e-03</internalNodes>
          <leafValues>
            7.2236883640289307e-01 -2.0227995514869690e-01</leafValues></_>
        <_>
          <internalNodes>
            0 -1 125 -4.2527592740952969e-03</internalNodes>
          <leafValues>
            8.2164198160171509e-01 -1.6065049171447754e-01</leafValues></_></weakClassifiers></_>
    <!-- stage 1 -->
    <_>
      <maxWeakCount>10</maxWeakCount>
      <stageThreshold>-1.6320928335189819e+00</stageThreshold>
      <weakClassifiers>
        <_>
          <internalNodes>
            0 -1 28 1.5590232796967030e-02</internalNodes>
          <leafValues>
            -6.1670762300491333e-01 7.6344084739685059e-01</leafValues></_>
        <_>
          <internalNodes>
            0 -1 41 -1.0477077215909958e-02</internalNodes>
          <leafValues>
            7.4827212095260620e-01 -3.9919546246528625e-01</leafValues></_>
        <_>
          <internalNodes>
            0 -1 67 4.4839382171630859e-03</internalNodes>
          <leafValues>
            -4.4717949628829956e-01 4.1602399945259094e-01</leafValues></_>
        <_>
          <internalNodes>
            0 -1 117 9.0976115316152573e-03</internalNodes>
          <leafValues>
            -3.9181718230247498e-01 4.8499971628189087e-01</leafValues></_>
        <_>
          <internalNodes>
            0 -1 86 -7.3738284409046173e-03</internalNodes>
          <leafValues>
            8.3160150051116943e-01 -1.7310507595539093e-01</leafValues></_>
        <_>
          <internalNodes>
            0 -1 37 5.0604036077857018e-03</internalNodes>
          <leafValues>
            -2.0492130517959595e-01 6.4757072925567627e-01</leafValues></_>
        <_>
          <internalNodes>
            0 -1 141 -5.0080399960279465e-03</internalNodes>
          <leafValues>
            6.6772615909576416e-01 -1.8008001148700714e-01</leafValues></_>
        <_>
          <internalNodes>
            0 -1 120 -2.9174597002565861e-03</internalNodes>
          <leafValues>
            5.6641584634780884e-01 -1.8381187319755554e-01</leafValues></_>
        <_>
          <internalNodes>
            0 -1 89 -1.4217549934983253e-02</internalNodes>
          <leafValues>
            -4.5812371373176575e-01 3.2573592662811279e-01</leafValues></_>
        <_>
          <internalNodes>
            0 -1 101 -3.2779653556644917e-03</internalNodes>
          <leafValues>
            6.7391437292098999e-01 -2.1350276470184326e-01</leafValues></_></weakClassifiers></_>
    <!-- stage 2 -->
    <_>
      <maxWeakCount>13</maxWeakCount>
      <stageThreshold>-1.7157734632492065e+00</stageThreshold>
      <weakClassifiers>
        <_>
          <internalNodes>
            0 -1 112 -3.7569638341665268e-02</internalNodes>
          <leafValues>
            4.3116489052772522e-01 -6.4437192678451538e-01</leafValues></_>
        <_>
          <internalNodes>
            0 -1 63 6.6003287211060524e-03</internalNodes>
          <leafValues>
            -4.5605176687240601e-01 5.0942111015319824e-01</leafValues></_>
        <_>
          <internalNodes>
            0 -1 70 6.6387588158249855e-03</internalNodes>
          <leafValues>
            -4.6072694659233093e-01 3.8637015223503113e-01</leafValues></_>
        <_>
          <internalNodes>
            0 -1 149 -1.0276907682418823e-01</internalNodes>
          <leafValues>
            -9.6880364418029785e-01 1.4861129224300385e-01</leafValues></_>
        <_>
          <internalNodes>
            0 -1 16 -2.6487225294113159e-01</internalNodes>
          <leafValues>
            1.9289284944534302e-01 -6.0686570405960083e-01</leafValues></_>
        <_>
          <internalNodes>
            0 -1 12 -5.2691437304019928e-03</internalNodes>
          <leafValues>
            4.6269702911376953e-01 -2.3453803360462189e-01</leafValues></_>
        <_>
          <internalNodes>
            0 -1 97 -7.3869749903678894e-03</internalNodes>
          <leafValues>
            5.5435329675674438e-01 -2.1100664138793945e-01</leafValues></_>
        <_>
          <internalNodes>
            0 -1 103 1.0153669863939285e-03</internalNodes>
          <leafValues>
            -3.0419415235519409e-01 3.3212193846702576e-01</leafValues></_>
        <_>
          <internalNodes>
            0 -1 48 -4.5054284855723381e-03</internalNodes>
          <leafValues>
            4.9048912525177002e-01 -1.8472163379192352e-01</leafValues></_>
        <_>
          <internalNodes>
            0 -1 34 -1.6826431453227997e-01</internalNodes>
          <leafValues>
            4.9345138669013977e-01 -1.8358670175075531e-01</leafValues></_>
        <_>
          <internalNodes>
            0 -1 87 1.2814565561711788e-03</internalNodes>
          <leafValues>
            -2.7093645930290222e-01 3.6001092195510864e-01</leafValues></_>
        <_>
          <internalNodes>
            0 -1 90 6.7415177822113037e-02</internalNodes>
          <leafValues>
            -1.6494561731815338e-01 5.8073163032531738e-01</leafValues></_>
        <_>
          <internalNodes>
            0 -1 52 1.4296302106231451e-03</internalNodes>
          <leafValues>
            -2.8442376852035522e-01 3.0278450250625610e-01</leafValues></_></weakClassifiers></_>
    <!-- stage 3 -->
    <_>
      <maxWeakCount>16</maxWeakCount>
      <stageThreshold>-1.6717590093612671e+00</stageThreshold>
      <weakClassifiers>
        <_>
          <internalNodes>
            0 -1 95 -3.3980242908000946e-02</internalNodes>
          <leafValues>
            1.6213275492191315e-01 -6.6350412368774414e-01</leafValues></_>
        <_>
          <internalNodes>
            0 -1 107 1.0333802551031113e-02</internalNodes>
          <leafValues>
            -3.3457317948341370e-01 5.6843167543411255e-01</leafValues></_>
        <_>
          <internalNodes>
            0 -1 88 -1.7053629457950592e-01</internalNodes>
          <leafValues>
            -7.1745622158050537e-01 2.4638946354389191e-01</leafValues></_>
        <_>
          <internalNodes>
            0 -1 134 -1.4779290184378624e-02</internalNodes>
          <leafValues>
            4.7630113363265991e-01 -2.4726699292659760e-01</leafValues></_>
        <_>
          <internalNodes>
            0 -1 80 6.1774514615535736e-03</internalNodes>
          <leafValues>
            -4.4469091296195984e-01 2.5032767653465271e-01</leafValues></_>
        <_>
          <internalNodes>
            0 -1 154 1.6173359006643295e-02</internalNodes>
          <leafValues>
            -1.2130758911371231e-01 6.9527930021286011e-01</leafValues></_>
        <_>
          <internalNodes>
            0 -1 60 -1.0874251835048199e-02</internalNodes>
          <leafValues>
            5.1528519392013550e-01 -1.7193430662155151e-01</leafValues></_>
        <_>
          <internalNodes>
            0 -1 7 -6.3700536265969276e-03</internalNodes>
          <leafValues>
            6.2866556644439697e-01 -1.6919270157814026e-01</leafValues></_>
        <_>
          <internalNodes>
            0 -1 157 -2.7549535036087036e-02</internalNodes>
          <leafValues>
            7.3204368352890015e-01 -1.0708381980657578e-01</leafValues></_>
        <_>
          <internalNodes>
            0 -1 4 4.0393602102994919e-03</internalNodes>
          <leafValues>
            -1.0633092373609543e-01 6.7582738399505615e-01</leafValues></_>
        <_>
          <internalNodes>
            0 -1 99 6.7302152514457703e-02</internalNodes>
          <leafValues>
            -2.5427055358886719e-01 3.5932061076164246e-01</leafValues></_>
        <_>
          <internalNodes>
            0 -1 133 2.3044463247060776e-02</internalNodes>
          <leafValues>
            -1.5847623348236084e-01 5.7283365726470947e-01</leafValues></_>
        <_>
          <internalNodes>
            0 -1 116 6.5792053937911987e-03</internalNodes>
          <leafValues>
            -2.0218181610107422e-01 4.0400937199592590e-01</leafValues></_>
        <_>
          <internalNodes>
            0 -1 167 6.0323363868519664e-04</internalNodes>
          <leafValues>
            1.5035760402679443e-01 -5.7409608364105225e-01</leafValues></_>
        <_>
          <internalNodes>
            0 -1 167 -8.0141169019043446e-04</internalNodes>
          <leafValues>
            -6.1580973863601685e-01 1.2587544322013855e-01</leafValues></_>
        <_>
          <internalNodes>
            0 -1 35 1.1220505693927407e-03</internalNodes>
          <leafValues>
            8.0707184970378876e-02 -6.9632154703140259e-01</leafValues></_></weakClassifiers></_>
    <!-- stage 4 -->
    <_>
      <maxWeakCount>15</maxWeakCount>
      <stageThreshold>-1.6472069025039673e+00</stageThreshold>
      <weakClassifiers>
        <_>
          <internalNodes>
            0 -1 59 -2.5047197937965393e-02</internalNodes>
          <leafValues>
            1.1197663098573685e-01 -6.8906992673873901e-01</leafValues></_>
        <_>
          <internalNodes>
            0 -1 106 3.8158963434398174e-03</internalNodes>
          <leafValues>
            -3.7642186880111694e-01 4.8492819070816040e-01</leafValues></_>
        <_>
          <internalNodes>
            0 -1 147 -1.0902790352702141e-02</internalNodes>
          <leafValues>
            -7.6849091053009033e-01 1.6285382211208344e-01</leafValues></_>
        <_>
          <internalNodes>
            0 -1 92 -1.5593477291986346e-03</internalNodes>
          <leafValues>
            4.0340265631675720e-01 -3.3226791024208069e-01</leafValues></_>
        <_>
          <internalNodes>
            0 -1 37 1.1381844058632851e-02</internalNodes>
          <leafValues>
            -1.2786544859409332e-01 7.2720307111740112e-01</leafValues></_>
        <_>
          <internalNodes>
            0 -1 109 1.7363203223794699e-03</internalNodes>
          <leafValues>
            -2.7610984444618225e-01 3.3779841661453247e-01</leafValues></_>
        <_>
          <internalNodes>
            0 -1 138 -7.5241168960928917e-03</internalNodes>
          <leafValues>
            5.9438723325729370e-01 -1.6576755046844482e-01</leafValues></_>
        <_>
          <internalNodes>
            0 -1 4 3.0103516764938831e-03</internalNodes>
          <leafValues>
            -1.2698251008987427e-01 5.2557921409606934e-01</leafValues></_>
        <_>
          <internalNodes>
            0 -1 79 -1.6958655416965485e-01</internalNodes>
          <leafValues>
            6.1233139038085938e-01 -1.3221862912178040e-01</leafValues></_>
        <_>
          <internalNodes>
            0 -1 9 -3.2936511561274529e-03</internalNodes>
          <leafValues>
            5.2237772941589355e-01 -1.3023622334003448e-01</leafValues></_>
        <_>
          <internalNodes>
            0 -1 146 -2.9421076178550720e-02</internalNodes>
          <leafValues>
            4.7817772626876831e-01 -1.7955234646797180e-01</leafValues></_>
        <_>
          <internalNodes>
            0 -1 54 -1.3227999443188310e-04</internalNodes>
          <leafValues>
            2.8744262456893921e-01 -2.5498878955841064e-01</leafValues></_>
        <_>
          <internalNodes>
            0 -1 83 -3.1331118196249008e-02</internalNodes>
          <leafValues>
            5.1091808080673218e-01 -1.1315382272005081e-01</leafValues></_>
        <_>
          <internalNodes>
            0 -1 150 1.9614410120993853e-03</internalNodes>
          <leafValues>
            -1.7551240324974060e-01 4.0138149261474609e-01</leafValues></_>
        <_>
          <internalNodes>
            0 -1 26 -1.1143848299980164e-02</internalNodes>
          <leafValues>
            3.8092765212059021e-01 -1.6187591850757599e-01</leafValues></_></weakClassifiers></_>
    <!-- stage 5 -->
    <_>
      <maxWeakCount>21</maxWeakCount>
      <stageThreshold>-1.6140158176422119e+00</stageThreshold>
      <weakClassifiers>
        <_>
          <internalNodes>
            0 -1 114 6.5915212035179138e-03</internalNodes>
          <leafValues>
            -5.5497652292251587e-01 2.8399312496185303e-01</leafValues></_>
        <_>
          <internalNodes>
            0 -1 2 -8.8587388396263123e-02</internalNodes>
          <leafValues>
            -2.7288809418678284e-01 4.3502506613731384e-01</leafValues></_>
        <_>
          <internalNodes>
            0 -1 41 -8.7334290146827698e-03</internalNodes>
          <leafValues>
            3.5506287217140198e-01 -3.2654488086700439e-01</leafValues></_>
        <_>
          <internalNodes>
            0 -1 69 -7.6378695666790009e-02</internalNodes>
          <leafValues>
            -9.5139050483703613e-01 1.1724016815423965e-01</leafValues></_>
        <_>
          <internalNodes>
            0 -1 123 -5.4507498862221837e-04</internalNodes>
          <leafValues>
            3.3809888362884521e-01 -2.6980650424957275e-01</leafValues></_>
        <_>
          <internalNodes>
            0 -1 49 -6.3539311289787292e-02</internalNodes>
          <leafValues>
            -7.5519025325775146e-01 9.1548129916191101e-02</leafValues></_>
        <_>
          <internalNodes>
            0 -1 142 -2.8171539306640625e-03</internalNodes>
          <leafValues>
            4.4048896431922913e-01 -1.9707946479320526e-01</leafValues></_>
        <_>
          <internalNodes>
            0 -1 165 -1.2889982899650931e-03</internalNodes>
          <leafValues>
            5.7024228572845459e-01 -1.4644397795200348e-01</leafValues></_>
        <_>
          <internalNodes>
            0 -1 97 -8.6022764444351196e-03</internalNodes>
          <leafValues>
            5.6545740365982056e-01 -1.6023741662502289e-01</leafValues></_>
        <_>
          <internalNodes>
            0 -1 75 9.2700142413377762e-03</internalNodes>
          <leafValues>
            -1.5759892761707306e-01 6.6231286525726318e-01</leafValues></_>
        <_>
          <internalNodes>
            0 -1 153 2.0109621982555836e-04</internalNodes>
          <leafValues>
            -1.6600713133811951e-01 3.9599108695983887e-01</leafValues></_>
        <_>
          <internalNodes>
            0 -1 45 5.8200517669320107e-03</internalNodes>
          <leafValues>
            -1.4949057996273041e-01 5.1186847686767578e-01</leafValues></_>
        <_>
          <internalNodes>
            0 -1 6 -7.1720234118402004e-03</internalNodes>
          <leafValues>
            7.8404879570007324e-01 -1.1183358728885651e-01</leafValues></_>
        <_>
          <internalNodes>
            0 -1 73 4.9910228699445724e-03</internalNodes>
          <leafValues>
            -1.8118815124034882e-01 3.6035671830177307e-01</leafValues></_>
        <_>
          <internalNodes>
            0 -1 170 -4.9509818200021982e-04</internalNodes>
          <leafValues>
            -6.4578193426132202e-01 1.0397205501794815e-01</leafValues></_>
        <_>
          <internalNodes>
            0 -1 44 1.3197677209973335e-02</internalNodes>
          <leafValues>
            -1.3986766338348389e-01 4.7656142711639404e-01</leafValues></_>
        <_>
          <internalNodes>
            0 -1 10 -1.8210671842098236e-02</internalNodes>
          <leafValues>
            -6.0018229484558105e-01 1.0993592441082001e-01</leafValues></_>
        <_>
          <internalNodes>
            0 -1 18 1.3901747297495604e-03</internalNodes>
          <leafValues>
            1.0920634865760803e-01 -6.6392248868942261e-01</leafValues></_>
        <_>
          <internalNodes>
            0 -1 17 1.5135605353862047e-03</internalNodes>
          <leafValues>
            8.5376836359500885e-02 -6.1417460441589355e-01</leafValues></_>
        <_>
          <internalNodes>
            0 -1 113 1.6485423548147082e-03</internalNodes>
          <leafValues>
            -1.6004303097724915e-01 4.1660243272781372e-01</leafValues></_>
        <_>
          <internalNodes>
            0 -1 50 2.4867057800292969e-03</internalNodes>
          <leafValues>
            -2.8034487366676331e-01 2.1663291752338409e-01</leafValues></_></weakClassifiers></_>
    <!-- stage 6 -->
    <_>
      <maxWeakCount>22</maxWeakCount>
      <stageThreshold>-1.5468623638153076e+00</stageThreshold>
      <weakClassifiers>
        <_>
          <internalNodes>
            0 -1 124 -2.9743907973170280e-02</internalNodes>
          <leafValues>
            3.6704120039939880e-01 -5.5747711658477783e-01</leafValues></_>
        <_>
          <internalNodes>
            0 -1 40 8.7679456919431686e-03</internalNodes>
          <leafValues>
            -3.5655114054679871e-01 2.9905700683593750e-01</leafValues></_>
        <_>
          <internalNodes>
            0 -1 122 -1.7811678349971771e-02</internalNodes>
          <leafValues>
            -5.5844843387603760e-01 1.5749606490135193e-01</leafValues></_>
        <_>
          <internalNodes>
            0 -1 110 -2.7726765722036362e-02</internalNodes>
          <leafValues>
            1.5375171601772308e-01 -5.4679775238037109e-01</leafValues></_>
        <_>
          <internalNodes>
            0 -1 166 1.0757104028016329e-03</internalNodes>
          <leafValues>
            1.0019579529762268e-01 -6.1548900604248047e-01</leafValues></_>
        <_>
          <internalNodes>
            0 -1 139 -7.3058912530541420e-03</internalNodes>
          <leafValues>
            7.7090406417846680e-01 -7.4213601648807526e-02</leafValues></_>
        <_>
          <internalNodes>
            0 -1 85 -1.7415473237633705e-02</internalNodes>
          <leafValues>
            5.0532293319702148e-01 -1.5281301736831665e-01</leafValues></_>
        <_>
          <internalNodes>
            0 -1 102 1.2157702445983887e-01</internalNodes>
          <leafValues>
            -1.6248646378517151e-01 4.8793005943298340e-01</leafValues></_>
        <_>
          <internalNodes>
            0 -1 72 -1.2782503664493561e-01</internalNodes>
          <leafValues>
            6.1324065923690796e-01 -8.2397952675819397e-02</leafValues></_>
        <_>
          <internalNodes>
            0 -1 66 3.6542775342240930e-04</internalNodes>
          <leafValues>
            -2.6786518096923828e-01 2.5994876027107239e-01</leafValues></_>
        <_>
          <internalNodes>
            0 -1 171 -3.7021684693172574e-04</internalNodes>
          <leafValues>
            -5.4042893648147583e-01 1.0567174106836319e-01</leafValues></_>
        <_>
          <internalNodes>
            0 -1 23 -8.3835294935852289e-04</internalNodes>
          <leafValues>
            -5.3270643949508667e-01 1.4579728245735168e-01</leafValues></_>
        <_>
          <internalNodes>
            0 -1 77 -2.3117819800972939e-03</internalNodes>
          <leafValues>
            4.7662350535392761e-01 -1.5824814140796661e-01</leafValues></_>
        <_>
          <internalNodes>
            0 -1 136 6.9001014344394207e-04</internalNodes>
          <leafValues>
            -2.3453156650066376e-01 2.7666395902633667e-01</leafValues></_>
        <_>
          <internalNodes>
            0 -1 159 -1.9016001373529434e-02</internalNodes>
          <leafValues>
            6.0702830553054810e-01 -1.0471955686807632e-01</leafValues></_>
        <_>
          <internalNodes>
            0 -1 53 4.7773465514183044e-02</internalNodes>
          <leafValues>
            -9.1513730585575104e-02 6.0255879163742065e-01</leafValues></_>
        <_>
          <internalNodes>
            0 -1 22 1.9403090700507164e-03</internalNodes>
          <leafValues>
            8.3795353770256042e-02 -7.4590289592742920e-01</leafValues></_>
        <_>
          <internalNodes>
            0 -1 11 -3.8627516478300095e-02</internalNodes>
          <leafValues>
            5.9341645240783691e-01 -1.0443532466888428e-01</leafValues></_>
        <_>
          <internalNodes>
            0 -1 42 -2.2737877443432808e-03</internalNodes>
          <leafValues>
            2.0178730785846710e-01 -3.0993086099624634e-01</leafValues></_>
        <_>
          <internalNodes>
            0 -1 71 4.3514510616660118e-03</internalNodes>
          <leafValues>
            -1.8084596097469330e-01 3.3194506168365479e-01</leafValues></_>
        <_>
          <internalNodes>
            0 -1 148 5.8331385254859924e-02</internalNodes>
          <leafValues>
            -1.0306676477193832e-01 5.2608728408813477e-01</leafValues></_>
        <_>
          <internalNodes>
            0 -1 168 -7.8474526526406407e-04</internalNodes>
          <leafValues>
            -6.8104100227355957e-01 8.3733998239040375e-02</leafValues></_></weakClassifiers></_>
    <!-- stage 7 -->
    <_>
      <maxWeakCount>26</maxWeakCount>
      <stageThreshold>-1.5361831188201904e+00</stageThreshold>
      <weakClassifiers>
        <_>
          <internalNodes>
            0 -1 1 5.0880755297839642e-03</internalNodes>
          <leafValues>
            -6.6808509826660156e-01 -8.6792454123497009e-02</leafValues></_>
        <_>
          <internalNodes>
            0 -1 56 -9.8015340045094490e-03</internalNodes>
          <leafValues>
            3.6154517531394958e-01 -2.9254522919654846e-01</leafValues></_>
        <_>
          <internalNodes>
            0 -1 127 -5.1784969400614500e-04</internalNodes>
          <leafValues>
            3.2933795452117920e-01 -2.3940588533878326e-01</leafValues></_>
        <_>
          <internalNodes>
            0 -1 33 2.8223825618624687e-02</internalNodes>
          <leafValues>
            -1.3961303234100342e-01 4.9217703938484192e-01</leafValues></_>
        <_>
          <internalNodes>
            0 -1 162 -5.2458047866821289e-03</internalNodes>
          <leafValues>
            4.3828186392784119e-01 -1.5987946093082428e-01</leafValues></_>
        <_>
          <internalNodes>
            0 -1 151 -2.7148619294166565e-02</internalNodes>
          <leafValues>
            -8.3045554161071777e-01 1.3330440223217010e-01</leafValues></_>
        <_>
          <internalNodes>
            0 -1 104 2.5267591699957848e-03</internalNodes>
          <leafValues>
            -1.9983479380607605e-01 4.0233236551284790e-01</leafValues></_>
        <_>
          <internalNodes>
            0 -1 68 -4.7970205545425415e-02</internalNodes>
          <leafValues>
            -6.7821598052978516e-01 1.3174459338188171e-01</leafValues></_>
        <_>
          <internalNodes>
            0 -1 31 -1.5400161035358906e-02</internalNodes>
          <leafValues>
            7.0099204778671265e-01 -1.3795433938503265e-01</leafValues></_>
        <_>
          <internalNodes>
            0 -1 38 -1.2455409392714500e-02</internalNodes>
          <leafValues>
            5.0051593780517578e-01 -1.1503572762012482e-01</leafValues></_>
        <_>
          <internalNodes>
            0 -1 57 -7.1684345602989197e-02</internalNodes>
          <leafValues>
            4.9372756481170654e-01 -1.1634128540754318e-01</leafValues></_>
        <_>
          <internalNodes>
            0 -1 137 3.0422516167163849e-02</internalNodes>
          <leafValues>
            -1.6245062649250031e-01 4.8048391938209534e-01</leafValues></_>
        <_>
          <internalNodes>
            0 -1 172 -4.3971085688099265e-04</internalNodes>
          <leafValues>
            -5.8902794122695923e-01 1.0224297642707825e-01</leafValues></_>
        <_>
          <internalNodes>
            0 -1 55 -1.7333113355562091e-03</internalNodes>
          <leafValues>
            3.9014008641242981e-01 -1.5519878268241882e-01</leafValues></_>
        <_>
          <internalNodes>
            0 -1 5 4.9532852135598660e-03</internalNodes>
          <leafValues>
            -1.0102535039186478e-01 5.6452542543411255e-01</leafValues></_>
        <_>
          <internalNodes>
            0 -1 20 2.3340233601629734e-03</internalNodes>
          <leafValues>
            1.0641887784004211e-01 -5.8261984586715698e-01</leafValues></_>
        <_>
          <internalNodes>
            0 -1 111 -2.3150821216404438e-03</internalNodes>
          <leafValues>
            4.2460739612579346e-01 -1.3940896093845367e-01</leafValues></_>
        <_>
          <internalNodes>
            0 -1 143 -9.0780891478061676e-03</internalNodes>
          <leafValues>
            3.4896689653396606e-01 -1.7391395568847656e-01</leafValues></_>
        <_>
          <internalNodes>
            0 -1 173 -3.1035542488098145e-03</internalNodes>
          <leafValues>
            -5.5747044086456299e-01 9.7916334867477417e-02</leafValues></_>
        <_>
          <internalNodes>
            0 -1 155 -1.5992410480976105e-02</internalNodes>
          <leafValues>
            5.5975037813186646e-01 -1.2010224163532257e-01</leafValues></_>
        <_>
          <internalNodes>
            0 -1 108 1.4542382210493088e-02</internalNodes>
          <leafValues>
            -1.1499486118555069e-01 4.7918504476547241e-01</leafValues></_>
        <_>
          <internalNodes>
            0 -1 132 1.5143919736146927e-02</internalNodes>
          <leafValues>
            -2.3389193415641785e-01 2.4532118439674377e-01</leafValues></_>
        <_>
          <internalNodes>
            0 -1 58 -4.4418573379516602e-02</internalNodes>
          <leafValues>
            3.5623413324356079e-01 -1.4569152891635895e-01</leafValues></_>
        <_>
          <internalNodes>
            0 -1 20 -2.3002927191555500e-03</internalNodes>
          <leafValues>
            -4.4003489613533020e-01 1.3277930021286011e-01</leafValues></_>
        <_>
          <internalNodes>
            0 -1 164 -1.8599635222926736e-04</internalNodes>
          <leafValues>
            -4.5406144857406616e-01 1.2186823040246964e-01</leafValues></_>
        <_>
          <internalNodes>
            0 -1 30 -1.7359115183353424e-02</internalNodes>
          <leafValues>
            5.7270997762680054e-01 -1.0249244421720505e-01</leafValues></_></weakClassifiers></_>
    <!-- stage 8 -->
    <_>
      <maxWeakCount>28</maxWeakCount>
      <stageThreshold>-1.3850458860397339e+00</stageThreshold>
      <weakClassifiers>
        <_>
          <internalNodes>
            0 -1 24 -4.3485470116138458e-02</internalNodes>
          <leafValues>
            7.0615030825138092e-02 -5.9309494495391846e-01</leafValues></_>
        <_>
          <internalNodes>
            0 -1 43 1.0529402643442154e-02</internalNodes>
          <leafValues>
            -1.7913557589054108e-01 5.4171299934387207e-01</leafValues></_>
        <_>
          <internalNodes>
            0 -1 39 1.8336929380893707e-02</internalNodes>
          <leafValues>
            -1.6577097773551941e-01 4.7239637374877930e-01</leafValues></_>
        <_>
          <internalNodes>
            0 -1 121 -8.4907039999961853e-02</internalNodes>
          <leafValues>
            -4.0662944316864014e-01 1.8997021019458771e-01</leafValues></_>
        <_>
          <internalNodes>
            0 -1 74 4.0792591869831085e-02</internalNodes>
          <leafValues>
            -8.0642201006412506e-02 5.6706923246383667e-01</leafValues></_>
        <_>
          <internalNodes>
            0 -1 100 -5.1777020096778870e-02</internalNodes>
          <leafValues>
            -6.7307323217391968e-01 8.0380707979202271e-02</leafValues></_>
        <_>
          <internalNodes>
            0 -1 119 -1.0622809641063213e-02</internalNodes>
          <leafValues>
            4.1478621959686279e-01 -1.4482638239860535e-01</leafValues></_>
        <_>
          <internalNodes>
            0 -1 46 7.0222183130681515e-03</internalNodes>
          <leafValues>
            -1.3334794342517853e-01 4.4323426485061646e-01</leafValues></_>
        <_>
          <internalNodes>
            0 -1 144 -1.1601732112467289e-03</internalNodes>
          <leafValues>
            3.0769136548042297e-01 -1.7716433107852936e-01</leafValues></_>
        <_>
          <internalNodes>
            0 -1 109 1.9636654760688543e-03</internalNodes>
          <leafValues>
            -2.2871662676334381e-01 2.5454440712928772e-01</leafValues></_>
        <_>
          <internalNodes>
            0 -1 84 -1.0238258540630341e-01</internalNodes>
          <leafValues>
            4.8340815305709839e-01 -1.3130372762680054e-01</leafValues></_>
        <_>
          <internalNodes>
            0 -1 25 -9.3396957963705063e-03</internalNodes>
          <leafValues>
            4.0375110507011414e-01 -1.2746101617813110e-01</leafValues></_>
        <_>
          <internalNodes>
            0 -1 161 2.2154205362312496e-04</internalNodes>
          <leafValues>
            -1.7129096388816833e-01 3.1689620018005371e-01</leafValues></_>
        <_>
          <internalNodes>
            0 -1 158 -2.2332686930894852e-02</internalNodes>
          <leafValues>
            4.8986694216728210e-01 -1.0974290966987610e-01</leafValues></_>
        <_>
          <internalNodes>
            0 -1 174 4.2212009429931641e-04</internalNodes>
          <leafValues>
            9.3222446739673615e-02 -5.8839213848114014e-01</leafValues></_>
        <_>
          <internalNodes>
            0 -1 145 2.3841857910156250e-04</internalNodes>
          <leafValues>
            -1.7668409645557404e-01 2.9001912474632263e-01</leafValues></_>
        <_>
          <internalNodes>
            0 -1 27 3.3785717096179724e-03</internalNodes>
          <leafValues>
            -1.6427628695964813e-01 2.9938444495201111e-01</leafValues></_>
        <_>
          <internalNodes>
            0 -1 163 -5.7594929821789265e-03</internalNodes>
          <leafValues>
            -4.3056640028953552e-01 1.1694867908954620e-01</leafValues></_>
        <_>
          <internalNodes>
            0 -1 38 6.6053448244929314e-03</internalNodes>
          <leafValues>
            -1.5247356891632080e-01 3.6797845363616943e-01</leafValues></_>
        <_>
          <internalNodes>
            0 -1 0 -8.5666347295045853e-03</internalNodes>
          <leafValues>
            5.1469242572784424e-01 -1.0268349200487137e-01</leafValues></_>
        <_>
          <internalNodes>
            0 -1 19 1.2405791785567999e-03</internalNodes>
          <leafValues>
            1.0982270538806915e-01 -5.7351338863372803e-01</leafValues></_>
        <_>
          <internalNodes>
            0 -1 62 -6.5053701400756836e-03</internalNodes>
          <leafValues>
            3.5949674248695374e-01 -1.5341648459434509e-01</leafValues></_>
        <_>
          <internalNodes>
            0 -1 129 -7.5768558308482170e-03</internalNodes>
          <leafValues>
            -6.7712420225143433e-01 7.1226671338081360e-02</leafValues></_>
        <_>
          <internalNodes>
            0 -1 130 1.8941166345030069e-03</internalNodes>
          <leafValues>
            -1.9310887157917023e-01 2.4119365215301514e-01</leafValues></_>
        <_>
          <internalNodes>
            0 -1 96 3.4965425729751587e-03</internalNodes>
          <leafValues>
            4.8915021121501923e-02 -9.2650777101516724e-01</leafValues></_>
        <_>
          <internalNodes>
            0 -1 13 1.9733672961592674e-03</internalNodes>
          <leafValues>
            -1.9217084348201752e-01 2.2545786201953888e-01</leafValues></_>
        <_>
          <internalNodes>
            0 -1 64 1.0752409696578979e-01</internalNodes>
          <leafValues>
            -1.0713133215904236e-01 5.5230760574340820e-01</leafValues></_>
        <_>
          <internalNodes>
            0 -1 98 -1.3488730182871222e-03</internalNodes>
          <leafValues>
            -3.7009626626968384e-01 1.3220439851284027e-01</leafValues></_></weakClassifiers></_>
    <!-- stage 9 -->
    <_>
      <maxWeakCount>27</maxWeakCount>
      <stageThreshold>-1.4268890619277954e+00</stageThreshold>
      <weakClassifiers>
        <_>
          <internalNodes>
            0 -1 128 5.2781734848394990e-04</internalNodes>
          <leafValues>
            -6.1340606212615967e-01 -9.2851273715496063e-02</leafValues></_>
        <_>
          <internalNodes>
            0 -1 118 -2.9882062226533890e-02</internalNodes>
          <leafValues>
            2.6559603214263916e-01 -2.9973444342613220e-01</leafValues></_>
        <_>
          <internalNodes>
            0 -1 91 -5.1815174520015717e-03</internalNodes>
          <leafValues>
            2.6836910843849182e-01 -2.2391615808010101e-01</leafValues></_>
        <_>
          <internalNodes>
            0 -1 14 -6.2486971728503704e-03</internalNodes>
          <leafValues>
            -7.5266945362091064e-01 7.8538075089454651e-02</leafValues></_>
        <_>
          <internalNodes>
            0 -1 126 2.4611022672615945e-04</internalNodes>
          <leafValues>
            -3.0323162674903870e-01 1.8627902865409851e-01</leafValues></_>
        <_>
          <internalNodes>
            0 -1 93 1.2393368035554886e-01</internalNodes>
          <leafValues>
            -4.9669399857521057e-02 7.3067736625671387e-01</leafValues></_>
        <_>
          <internalNodes>
            0 -1 36 -1.4855016022920609e-02</internalNodes>
          <leafValues>
            -7.0061004161834717e-01 7.9602397978305817e-02</leafValues></_>
        <_>
          <internalNodes>
            0 -1 51 1.9255436956882477e-02</internalNodes>
          <leafValues>
            -1.1405599862337112e-01 5.5657017230987549e-01</leafValues></_>
        <_>
          <internalNodes>
            0 -1 21 -1.0959337651729584e-01</internalNodes>
          <leafValues>
            3.5584411025047302e-01 -1.4379578828811646e-01</leafValues></_>
        <_>
          <internalNodes>
            0 -1 105 -6.6986046731472015e-03</internalNodes>
          <leafValues>
            3.9945644140243530e-01 -1.1572879552841187e-01</leafValues></_>
        <_>
          <internalNodes>
            0 -1 152 8.4731830283999443e-03</internalNodes>
          <leafValues>
            -1.0758276283740997e-01 4.9806925654411316e-01</leafValues></_>
        <_>
          <internalNodes>
            0 -1 65 1.6364812850952148e-02</internalNodes>
          <leafValues>
            -7.0129022002220154e-02 7.3128598928451538e-01</leafValues></_>
        <_>
          <internalNodes>
            0 -1 76 -1.6283992677927017e-02</internalNodes>
          <leafValues>
            -2.4058429896831512e-01 1.9914087653160095e-01</leafValues></_>
        <_>
          <internalNodes>
            0 -1 94 -1.0386356152594090e-03</internalNodes>
          <leafValues>
            3.5756838321685791e-01 -1.2531702220439911e-01</leafValues></_>
        <_>
          <internalNodes>
            0 -1 78 -4.5091719366610050e-03</internalNodes>
          <leafValues>
            3.7214279174804688e-01 -1.3453599810600281e-01</leafValues></_>
        <_>
          <internalNodes>
            0 -1 32 1.5402224380522966e-03</internalNodes>
          <leafValues>
            6.0720328241586685e-02 -8.6375647783279419e-01</leafValues></_>
        <_>
          <internalNodes>
            0 -1 169 -9.7390206065028906e-04</internalNodes>
          <leafValues>
            -7.7984160184860229e-01 4.8321858048439026e-02</leafValues></_>
        <_>
          <internalNodes>
            0 -1 140 4.6480505261570215e-04</internalNodes>
          <leafValues>
            -2.6377099752426147e-01 1.6407784819602966e-01</leafValues></_>
        <_>
          <internalNodes>
            0 -1 8 2.6429932564496994e-02</internalNodes>
          <leafValues>
            4.0829431265592575e-02 -9.3540245294570923e-01</leafValues></_>
        <_>
          <internalNodes>
            0 -1 3 4.7842138446867466e-03</internalNodes>
          <leafValues>
            -1.1936061829328537e-01 4.2169335484504700e-01</leafValues></_>
        <_>
          <internalNodes>
            0 -1 29 1.7024008557200432e-03</internalNodes>
          <leafValues>
            -2.0495310425758362e-01 2.6750543713569641e-01</leafValues></_>
        <_>
          <internalNodes>
            0 -1 156 -2.0263519138097763e-02</internalNodes>
          <leafValues>
            5.6126070022583008e-01 -8.1578522920608521e-02</leafValues></_>
        <_>
          <internalNodes>
            0 -1 160 1.6095768660306931e-04</internalNodes>
          <leafValues>
            -1.9548384845256805e-01 2.4907448887825012e-01</leafValues></_>
        <_>
          <internalNodes>
            0 -1 82 -2.5774086825549603e-03</internalNodes>
          <leafValues>
            7.5422957539558411e-02 -5.6628608703613281e-01</leafValues></_>
        <_>
          <internalNodes>
            0 -1 15 -2.0114682614803314e-02</internalNodes>
          <leafValues>
            4.9363681674003601e-01 -9.9516883492469788e-02</leafValues></_>
        <_>
          <internalNodes>
            0 -1 17 -2.7250656858086586e-03</internalNodes>
          <leafValues>
            -6.8365561962127686e-01 7.5234711170196533e-02</leafValues></_>
        <_>
          <internalNodes>
            0 -1 135 1.2111624702811241e-02</internalNodes>
          <leafValues>
            -1.0637028515338898e-01 4.7880744934082031e-01</leafValues></_></weakClassifiers></_></stages>
  <features>
    <_>
      <rects>
        <_>
          0 0 6 4 -1.</_>
        <_>
          0 0 3 2 2.</_>
        <_>
          3 2 3 2 2.</_></rects>
      <tilted>0</tilted></_>
    <_>
      <rects>
        <_>
          0 0 22 2 -1.</_>
        <_>
          0 1 22 1 2.</_></rects>
      <tilted>0</tilted></_>
    <_>
      <rects>
        <_>
          0 0 22 3 -1.</_>
        <_>
          0 1 22 1 2.</_></rects>
      <tilted>0</tilted></_>
    <_>
      <rects>
        <_>
          0 1 2 8 -1.</_>
        <_>
          1 1 1 8 2.</_></rects>
      <tilted>0</tilted></_>
    <_>
      <rects>
        <_>
          0 3 2 5 -1.</_>
        <_>
          1 3 1 5 2.</_></rects>
      <tilted>0</tilted></_>
    <_>
      <rects>
        <_>
          0 4 2 6 -1.</_>
        <_>
          1 4 1 6 2.</_></rects>
      <tilted>0</tilted></_>
    <_>
      <rects>
        <_>
          0 4 2 7 -1.</_>
        <_>
          1 4 1 7 2.</_></rects>
      <tilted>0</tilted></_>
    <_>
      <rects>
        <_>
          0 4 4 3 -1.</_>
        <_>
          2 4 2 3 2.</_></rects>
      <tilted>0</tilted></_>
    <_>
      <rects>
        <_>
          0 4 23 2 -1.</_>
        <_>
          0 5 23 1 2.</_></rects>
      <tilted>0</tilted></_>
    <_>
      <rects>
        <_>
          0 5 4 2 -1.</_>
        <_>
          2 5 2 2 2.</_></rects>
      <tilted>0</tilted></_>
    <_>
      <rects>
        <_>
          0 6 1 18 -1.</_>
        <_>
          0 15 1 9 2.</_></rects>
      <tilted>0</tilted></_>
    <_>
      <rects>
        <_>
          0 6 6 10 -1.</_>
        <_>
          3 6 3 10 2.</_></rects>
      <tilted>0</tilted></_>
    <_>
      <rects>
        <_>
          0 9 10 2 -1.</_>
        <_>
          5 9 5 2 2.</_></rects>
      <tilted>0</tilted></_>
    <_>
      <rects>
        <_>
          0 9 11 2 -1.</_>
        <_>
          0 10 11 1 2.</_></rects>
      <tilted>0</tilted></_>
    <_>
      <rects>
        <_>
          0 10 20 2 -1.</_>
        <_>
          0 11 20 1 2.</_></rects>
      <tilted>0</tilted></_>
    <_>
      <rects>
        <_>
          0 11 6 5 -1.</_>
        <_>
          3 11 3 5 2.</_></rects>
      <tilted>0</tilted></_>
    <_>
      <rects>
        <_>
          0 12 22 9 -1.</_>
        <_>
          0 15 22 3 2.</_></rects>
      <tilted>0</tilted></_>
    <_>
      <rects>
        <_>
          0 13 1 4 -1.</_>
        <_>
          0 15 1 2 2.</_></rects>
      <tilted>0</tilted></_>
    <_>
      <rects>
        <_>
          0 16 1 4 -1.</_>
        <_>
          0 18 1 2 2.</_></rects>
      <tilted>0</tilted></_>
    <_>
      <rects>
        <_>
          0 17 1 4 -1.</_>
        <_>
          0 19 1 2 2.</_></rects>
      <tilted>0</tilted></_>
    <_>
      <rects>
        <_>
          0 18 1 6 -1.</_>
        <_>
          0 21 1 3 2.</_></rects>
      <tilted>0</tilted></_>
    <_>
      <rects>
        <_>
          0 18 24 4 -1.</_>
        <_>
          12 18 12 4 2.</_></rects>
      <tilted>0</tilted></_>
    <_>
      <rects>
        <_>
          0 19 2 4 -1.</_>
        <_>
          0 19 1 2 2.</_>
        <_>
          1 21 1 2 2.</_></rects>
      <tilted>0</tilted></_>
    <_>
      <rects>
        <_>
          0 19 4 2 -1.</_>
        <_>
          0 19 2 1 2.</_>
        <_>
          2 20 2 1 2.</_></rects>
      <tilted>0</tilted></_>
    <_>
      <rects>
        <_>
          0 20 21 4 -1.</_>
        <_>
          0 22 21 2 2.</_></rects>
      <tilted>0</tilted></_>
    <_>
      <rects>
        <_>
          0 22 22 2 -1.</_>
        <_>
          0 22 11 1 2.</_>
        <_>
          11 23 11 1 2.</_></rects>
      <tilted>0</tilted></_>
    <_>
      <rects>
        <_>
          0 22 22 2 -1.</_>
        <_>
          0 23 22 1 2.</_></rects>
      <tilted>0</tilted></_>
    <_>
      <rects>
        <_>
          1 0 2 22 -1.</_>
        <_>
          2 0 1 22 2.</_></rects>
      <tilted>0</tilted></_>
    <_>
      <rects>
        <_>
          1 0 21 2 -1.</_>
        <_>
          1 1 21 1 2.</_></rects>
      <tilted>0</tilted></_>
    <_>
      <rects>
        <_>
          1 1 2 22 -1.</_>
        <_>
          1 1 1 11 2.</_>
        <_>
          2 12 1 11 2.</_></rects>
      <tilted>0</tilted></_>
    <_>
      <rects>
        <_>
          1 1 6 4 -1.</_>
        <_>
          1 3 6 2 2.</_></rects>
      <tilted>0</tilted></_>
    <_>
      <rects>
        <_>
          1 1 18 2 -1.</_>
        <_>
          1 1 9 1 2.</_>
        <_>
          10 2 9 1 2.</_></rects>
      <tilted>0</tilted></_>
    <_>
      <rects>
        <_>
          1 7 1 2 -1.</_>
        <_>
          1 8 1 1 2.</_></rects>
      <tilted>0</tilted></_>
    <_>
      <rects>
        <_>
          1 8 8 10 -1.</_>
        <_>
          1 8 4 5 2.</_>
        <_>
          5 13 4 5 2.</_></rects>
      <tilted>0</tilted></_>
    <_>
      <rects>
        <_>
          1 11 22 12 -1.</_>
        <_>
          12 11 11 12 2.</_></rects>
      <tilted>0</tilted></_>
    <_>
      <rects>
        <_>
          1 13 2 2 -1.</_>
        <_>
          1 14 2 1 2.</_></rects>
      <tilted>0</tilted></_>
    <_>
      <rects>
        <_>
          1 19 23 2 -1.</_>
        <_>
          1 20 23 1 2.</_></rects>
      <tilted>0</tilted></_>
    <_>
      <rects>
        <_>
          1 22 16 2 -1.</_>
        <_>
          1 22 8 1 2.</_>
        <_>
          9 23 8 1 2.</_></rects>
      <tilted>0</tilted></_>
    <_>
      <rects>
        <_>
          1 22 22 2 -1.</_>
        <_>
          1 22 11 1 2.</_>
        <_>
          12 23 11 1 2.</_></rects>
      <tilted>0</tilted></_>
    <_>
      <rects>
        <_>
          2 0 15 2 -1.</_>
        <_>
          2 1 15 1 2.</_></rects>
      <tilted>0</tilted></_>
    <_>
      <rects>
        <_>
          2 0 21 2 -1.</_>
        <_>
          2 1 21 1 2.</_></rects>
      <tilted>0</tilted></_>
    <_>
      <rects>
        <_>
          2 21 19 2 -1.</_>
        <_>
          2 22 19 1 2.</_></rects>
      <tilted>0</tilted></_>
    <_>
      <rects>
        <_>
          2 21 20 2 -1.</_>
        <_>
          2 22 20 1 2.</_></rects>
      <tilted>0</tilted></_>
    <_>
      <rects>
        <_>
          2 22 16 2 -1.</_>
        <_>
          2 22 8 1 2.</_>
        <_>
          10 23 8 1 2.</_></rects>
      <tilted>0</tilted></_>
    <_>
      <rects>
        <_>
          3 0 10 4 -1.</_>
        <_>
          3 0 5 2 2.</_>
        <_>
          8 2 5 2 2.</_></rects>
      <tilted>0</tilted></_>
    <_>
      <rects>
        <_>
          3 0 6 2 -1.</_>
        <_>
          3 1 6 1 2.</_></rects>
      <tilted>0</tilted></_>
    <_>
      <rects>
        <_>
          3 0 12 2 -1.</_>
        <_>
          3 0 6 1 2.</_>
        <_>
          9 1 6 1 2.</_></rects>
      <tilted>0</tilted></_>
    <_>
      <rects>
        <_>
          3 0 20 2 -1.</_>
        <_>
          3 1 20 1 2.</_></rects>
      <tilted>0</tilted></_>
    <_>
      <rects>
        <_>
          3 1 18 2 -1.</_>
        <_>
          3 2 18 1 2.</_></rects>
      <tilted>0</tilted></_>
    <_>
      <rects>
        <_>
          3 3 19 8 -1.</_>
        <_>
          3 7 19 4 2.</_></rects>
      <tilted>0</tilted></_>
    <_>
      <rects>
        <_>
          3 4 21 2 -1.</_>
        <_>
          3 5 21 1 2.</_></rects>
      <tilted>0</tilted></_>
    <_>
      <rects>
        <_>
          3 8 4 14 -1.</_>
        <_>
          3 8 2 7 2.</_>
        <_>
          5 15 2 7 2.</_></rects>
      <tilted>0</tilted></_>
    <_>
      <rects>
        <_>
          3 9 6 4 -1.</_>
        <_>
          3 11 6 2 2.</_></rects>
      <tilted>0</tilted></_>
    <_>
      <rects>
        <_>
          3 10 10 8 -1.</_>
        <_>
          3 10 5 4 2.</_>
        <_>
          8 14 5 4 2.</_></rects>
      <tilted>0</tilted></_>
    <_>
      <rects>
        <_>
          3 13 4 2 -1.</_>
        <_>
          3 14 4 1 2.</_></rects>
      <tilted>0</tilted></_>
    <_>
      <rects>
        <_>
          3 15 8 2 -1.</_>
        <_>
          3 15 4 1 2.</_>
        <_>
          7 16 4 1 2.</_></rects>
      <tilted>0</tilted></_>
    <_>
      <rects>
        <_>
          3 18 12 4 -1.</_>
        <_>
          3 18 6 2 2.</_>
        <_>
          9 20 6 2 2.</_></rects>
      <tilted>0</tilted></_>
    <_>
      <rects>
        <_>
          3 19 18 4 -1.</_>
        <_>
          12 19 9 4 2.</_></rects>
      <tilted>0</tilted></_>
    <_>
      <rects>
        <_>
          3 20 16 4 -1.</_>
        <_>
          3 22 16 2 2.</_></rects>
      <tilted>0</tilted></_>
    <_>
      <rects>
        <_>
          3 20 19 4 -1.</_>
        <_>
          3 22 19 2 2.</_></rects>
      <tilted>0</tilted></_>
    <_>
      <rects>
        <_>
          3 22 20 2 -1.</_>
        <_>
          3 23 20 1 2.</_></rects>
      <tilted>0</tilted></_>
    <_>
      <rects>
        <_>
          4 0 8 2 -1.</_>
        <_>
          4 0 4 1 2.</_>
        <_>
          8 1 4 1 2.</_></rects>
      <tilted>0</tilted></_>
    <_>
      <rects>
        <_>
          4 0 18 2 -1.</_>
        <_>
          4 0 9 1 2.</_>
        <_>
          13 1 9 1 2.</_></rects>
      <tilted>0</tilted></_>
    <_>
      <rects>
        <_>
          4 0 17 2 -1.</_>
        <_>
          4 1 17 1 2.</_></rects>
      <tilted>0</tilted></_>
    <_>
      <rects>
        <_>
          4 1 12 20 -1.</_>
        <_>
          4 1 6 10 2.</_>
        <_>
          10 11 6 10 2.</_></rects>
      <tilted>0</tilted></_>
    <_>
      <rects>
        <_>
          4 1 14 2 -1.</_>
        <_>
          4 1 7 1 2.</_>
        <_>
          11 2 7 1 2.</_></rects>
      <tilted>0</tilted></_>
    <_>
      <rects>
        <_>
          4 3 4 2 -1.</_>
        <_>
          4 4 4 1 2.</_></rects>
      <tilted>0</tilted></_>
    <_>
      <rects>
        <_>
          4 3 11 4 -1.</_>
        <_>
          4 5 11 2 2.</_></rects>
      <tilted>0</tilted></_>
    <_>
      <rects>
        <_>
          4 3 14 8 -1.</_>
        <_>
          4 7 14 4 2.</_></rects>
      <tilted>0</tilted></_>
    <_>
      <rects>
        <_>
          4 4 15 1 -1.</_>
        <_>
          9 4 5 1 2.</_></rects>
      <tilted>0</tilted></_>
    <_>
      <rects>
        <_>
          4 4 18 4 -1.</_>
        <_>
          4 6 18 2 2.</_></rects>
      <tilted>0</tilted></_>
    <_>
      <rects>
        <_>
          4 6 6 3 -1.</_>
        <_>
          7 6 3 3 2.</_></rects>
      <tilted>0</tilted></_>
    <_>
      <rects>
        <_>
          4 8 16 14 -1.</_>
        <_>
          4 8 8 7 2.</_>
        <_>
          12 15 8 7 2.</_></rects>
      <tilted>0</tilted></_>
    <_>
      <rects>
        <_>
          4 10 6 6 -1.</_>
        <_>
          4 10 3 3 2.</_>
        <_>
          7 13 3 3 2.</_></rects>
      <tilted>0</tilted></_>
    <_>
      <rects>
        <_>
          4 10 8 10 -1.</_>
        <_>
          4 10 4 5 2.</_>
        <_>
          8 15 4 5 2.</_></rects>
      <tilted>0</tilted></_>
    <_>
      <rects>
        <_>
          4 22 14 2 -1.</_>
        <_>
          4 22 7 1 2.</_>
        <_>
          11 23 7 1 2.</_></rects>
      <tilted>0</tilted></_>
    <_>
      <rects>
        <_>
          5 0 3 3 -1.</_>
        <_>
          5 1 3 1 2.</_></rects>
      <tilted>0</tilted></_>
    <_>
      <rects>
        <_>
          5 1 3 2 -1.</_>
        <_>
          5 2 3 1 2.</_></rects>
      <tilted>0</tilted></_>
    <_>
      <rects>
        <_>
          5 1 12 2 -1.</_>
        <_>
          5 1 6 1 2.</_>
        <_>
          11 2 6 1 2.</_></rects>
      <tilted>0</tilted></_>
    <_>
      <rects>
        <_>
          5 3 16 20 -1.</_>
        <_>
          5 3 8 10 2.</_>
        <_>
          13 13 8 10 2.</_></rects>
      <tilted>0</tilted></_>
    <_>
      <rects>
        <_>
          5 3 14 4 -1.</_>
        <_>
          5 5 14 2 2.</_></rects>
      <tilted>0</tilted></_>
    <_>
      <rects>
        <_>
          5 4 18 4 -1.</_>
        <_>
          5 6 18 2 2.</_></rects>
      <tilted>0</tilted></_>
    <_>
      <rects>
        <_>
          5 6 3 1 -1.</_>
        <_>
          6 6 1 1 2.</_></rects>
      <tilted>0</tilted></_>
    <_>
      <rects>
        <_>
          5 8 8 14 -1.</_>
        <_>
          5 8 4 7 2.</_>
        <_>
          9 15 4 7 2.</_></rects>
      <tilted>0</tilted></_>
    <_>
      <rects>
        <_>
          5 8 14 14 -1.</_>
        <_>
          5 8 7 7 2.</_>
        <_>
          12 15 7 7 2.</_></rects>
      <tilted>0</tilted></_>
    <_>
      <rects>
        <_>
          5 20 14 4 -1.</_>
        <_>
          5 20 7 2 2.</_>
        <_>
          12 22 7 2 2.</_></rects>
      <tilted>0</tilted></_>
    <_>
      <rects>
        <_>
          5 22 16 2 -1.</_>
        <_>
          5 22 8 1 2.</_>
        <_>
          13 23 8 1 2.</_></rects>
      <tilted>0</tilted></_>
    <_>
      <rects>
        <_>
          6 0 6 2 -1.</_>
        <_>
          6 1 6 1 2.</_></rects>
      <tilted>0</tilted></_>
    <_>
      <rects>
        <_>
          6 2 6 9 -1.</_>
        <_>
          6 5 6 3 2.</_></rects>
      <tilted>0</tilted></_>
    <_>
      <rects>
        <_>
          6 3 3 2 -1.</_>
        <_>
          7 3 1 2 2.</_></rects>
      <tilted>0</tilted></_>
    <_>
      <rects>
        <_>
          6 5 12 16 -1.</_>
        <_>
          6 5 6 8 2.</_>
        <_>
          12 13 6 8 2.</_></rects>
      <tilted>0</tilted></_>
    <_>
      <rects>
        <_>
          6 6 9 4 -1.</_>
        <_>
          6 8 9 2 2.</_></rects>
      <tilted>0</tilted></_>
    <_>
      <rects>
        <_>
          6 6 10 4 -1.</_>
        <_>
          6 8 10 2 2.</_></rects>
      <tilted>0</tilted></_>
    <_>
      <rects>
        <_>
          6 7 12 16 -1.</_>
        <_>
          6 7 6 8 2.</_>
        <_>
          12 15 6 8 2.</_></rects>
      <tilted>0</tilted></_>
    <_>
      <rects>
        <_>
          6 14 3 2 -1.</_>
        <_>
          6 15 3 1 2.</_></rects>
      <tilted>0</tilted></_>
    <_>
      <rects>
        <_>
          6 18 11 6 -1.</_>
        <_>
          6 21 11 3 2.</_></rects>
      <tilted>0</tilted></_>
    <_>
      <rects>
        <_>
          6 21 2 3 -1.</_>
        <_>
          7 21 1 3 2.</_></rects>
      <tilted>0</tilted></_>
    <_>
      <rects>
        <_>
          6 22 16 2 -1.</_>
        <_>
          6 22 8 1 2.</_>
        <_>
          14 23 8 1 2.</_></rects>
      <tilted>0</tilted></_>
    <_>
      <rects>
        <_>
          7 0 2 5 -1.</_>
        <_>
          8 0 1 5 2.</_></rects>
      <tilted>0</tilted></_>
    <_>
      <rects>
        <_>
          7 4 17 18 -1.</_>
        <_>
          7 13 17 9 2.</_></rects>
      <tilted>0</tilted></_>
    <_>
      <rects>
        <_>
          7 6 13 10 -1.</_>
        <_>
          7 11 13 5 2.</_></rects>
      <tilted>0</tilted></_>
    <_>
      <rects>
        <_>
          7 7 6 2 -1.</_>
        <_>
          7 8 6 1 2.</_></rects>
      <tilted>0</tilted></_>
    <_>
      <rects>
        <_>
          7 9 13 14 -1.</_>
        <_>
          7 16 13 7 2.</_></rects>
      <tilted>0</tilted></_>
    <_>
      <rects>
        <_>
          7 10 12 2 -1.</_>
        <_>
          7 11 12 1 2.</_></rects>
      <tilted>0</tilted></_>
    <_>
      <rects>
        <_>
          7 14 8 2 -1.</_>
        <_>
          7 14 4 1 2.</_>
        <_>
          11 15 4 1 2.</_></rects>
      <tilted>0</tilted></_>
    <_>
      <rects>
        <_>
          7 22 16 2 -1.</_>
        <_>
          7 22 8 1 2.</_>
        <_>
          15 23 8 1 2.</_></rects>
      <tilted>0</tilted></_>
    <_>
      <rects>
        <_>
          8 0 5 2 -1.</_>
        <_>
          8 1 5 1 2.</_></rects>
      <tilted>0</tilted></_>
    <_>
      <rects>
        <_>
          8 0 11 2 -1.</_>
        <_>
          8 1 11 1 2.</_></rects>
      <tilted>0</tilted></_>
    <_>
      <rects>
        <_>
          8 0 14 2 -1.</_>
        <_>
          8 1 14 1 2.</_></rects>
      <tilted>0</tilted></_>
    <_>
      <rects>
        <_>
          8 5 6 2 -1.</_>
        <_>
          8 6 6 1 2.</_></rects>
      <tilted>0</tilted></_>
    <_>
      <rects>
        <_>
          8 14 6 3 -1.</_>
        <_>
          10 14 2 3 2.</_></rects>
      <tilted>0</tilted></_>
    <_>
      <rects>
        <_>
          8 14 8 2 -1.</_>
        <_>
          8 14 4 1 2.</_>
        <_>
          12 15 4 1 2.</_></rects>
      <tilted>0</tilted></_>
    <_>
      <rects>
        <_>
          8 18 8 6 -1.</_>
        <_>
          8 21 8 3 2.</_></rects>
      <tilted>0</tilted></_>
    <_>
      <rects>
        <_>
          9 0 8 2 -1.</_>
        <_>
          9 0 4 1 2.</_>
        <_>
          13 1 4 1 2.</_></rects>
      <tilted>0</tilted></_>
    <_>
      <rects>
        <_>
          9 0 5 2 -1.</_>
        <_>
          9 1 5 1 2.</_></rects>
      <tilted>0</tilted></_>
    <_>
      <rects>
        <_>
          9 2 1 9 -1.</_>
        <_>
          9 5 1 3 2.</_></rects>
      <tilted>0</tilted></_>
    <_>
      <rects>
        <_>
          9 6 12 4 -1.</_>
        <_>
          9 6 6 2 2.</_>
        <_>
          15 8 6 2 2.</_></rects>
      <tilted>0</tilted></_>
    <_>
      <rects>
        <_>
          9 9 4 10 -1.</_>
        <_>
          9 14 4 5 2.</_></rects>
      <tilted>0</tilted></_>
    <_>
      <rects>
        <_>
          9 18 6 6 -1.</_>
        <_>
          9 21 6 3 2.</_></rects>
      <tilted>0</tilted></_>
    <_>
      <rects>
        <_>
          9 20 12 4 -1.</_>
        <_>
          9 20 6 2 2.</_>
        <_>
          15 22 6 2 2.</_></rects>
      <tilted>0</tilted></_>
    <_>
      <rects>
        <_>
          10 1 10 2 -1.</_>
        <_>
          10 1 5 1 2.</_>
        <_>
          15 2 5 1 2.</_></rects>
      <tilted>0</tilted></_>
    <_>
      <rects>
        <_>
          10 2 4 9 -1.</_>
        <_>
          10 5 4 3 2.</_></rects>
      <tilted>0</tilted></_>
    <_>
      <rects>
        <_>
          10 4 1 6 -1.</_>
        <_>
          10 6 1 2 2.</_></rects>
      <tilted>0</tilted></_>
    <_>
      <rects>
        <_>
          10 7 2 2 -1.</_>
        <_>
          10 8 2 1 2.</_></rects>
      <tilted>0</tilted></_>
    <_>
      <rects>
        <_>
          10 18 4 6 -1.</_>
        <_>
          10 21 4 3 2.</_></rects>
      <tilted>0</tilted></_>
    <_>
      <rects>
        <_>
          11 1 10 2 -1.</_>
        <_>
          11 1 5 1 2.</_>
        <_>
          16 2 5 1 2.</_></rects>
      <tilted>0</tilted></_>
    <_>
      <rects>
        <_>
          11 4 1 4 -1.</_>
        <_>
          11 6 1 2 2.</_></rects>
      <tilted>0</tilted></_>
    <_>
      <rects>
        <_>
          11 7 2 2 -1.</_>
        <_>
          11 8 2 1 2.</_></rects>
      <tilted>0</tilted></_>
    <_>
      <rects>
        <_>
          12 0 2 2 -1.</_>
        <_>
          12 1 2 1 2.</_></rects>
      <tilted>0</tilted></_>
    <_>
      <rects>
        <_>
          12 1 2 17 -1.</_>
        <_>
          13 1 1 17 2.</_></rects>
      <tilted>0</tilted></_>
    <_>
      <rects>
        <_>
          12 7 6 4 -1.</_>
        <_>
          12 7 3 2 2.</_>
        <_>
          15 9 3 2 2.</_></rects>
      <tilted>0</tilted></_>
    <_>
      <rects>
        <_>
          12 22 8 2 -1.</_>
        <_>
          12 22 4 1 2.</_>
        <_>
          16 23 4 1 2.</_></rects>
      <tilted>0</tilted></_>
    <_>
      <rects>
        <_>
          13 2 8 6 -1.</_>
        <_>
          13 5 8 3 2.</_></rects>
      <tilted>0</tilted></_>
    <_>
      <rects>
        <_>
          13 10 6 12 -1.</_>
        <_>
          13 10 3 6 2.</_>
        <_>
          16 16 3 6 2.</_></rects>
      <tilted>0</tilted></_>
    <_>
      <rects>
        <_>
          13 10 8 8 -1.</_>
        <_>
          13 10 4 4 2.</_>
        <_>
          17 14 4 4 2.</_></rects>
      <tilted>0</tilted></_>
    <_>
      <rects>
        <_>
          13 13 6 6 -1.</_>
        <_>
          13 13 3 3 2.</_>
        <_>
          16 16 3 3 2.</_></rects>
      <tilted>0</tilted></_>
    <_>
      <rects>
        <_>
          14 3 1 4 -1.</_>
        <_>
          14 5 1 2 2.</_></rects>
      <tilted>0</tilted></_>
    <_>
      <rects>
        <_>
          14 9 10 6 -1.</_>
        <_>
          19 9 5 6 2.</_></rects>
      <tilted>0</tilted></_>
    <_>
      <rects>
        <_>
          14 13 6 4 -1.</_>
        <_>
          14 13 3 2 2.</_>
        <_>
          17 15 3 2 2.</_></rects>
      <tilted>0</tilted></_>
    <_>
      <rects>
        <_>
          15 1 4 2 -1.</_>
        <_>
          15 2 4 1 2.</_></rects>
      <tilted>0</tilted></_>
    <_>
      <rects>
        <_>
          15 4 7 2 -1.</_>
        <_>
          15 5 7 1 2.</_></rects>
      <tilted>0</tilted></_>
    <_>
      <rects>
        <_>
          15 11 4 6 -1.</_>
        <_>
          15 11 2 3 2.</_>
        <_>
          17 14 2 3 2.</_></rects>
      <tilted>0</tilted></_>
    <_>
      <rects>
        <_>
          15 12 4 4 -1.</_>
        <_>
          15 12 2 2 2.</_>
        <_>
          17 14 2 2 2.</_></rects>
      <tilted>0</tilted></_>
    <_>
      <rects>
        <_>
          16 8 4 12 -1.</_>
        <_>
          16 8 2 6 2.</_>
        <_>
          18 14 2 6 2.</_></rects>
      <tilted>0</tilted></_>
    <_>
      <rects>
        <_>
          16 11 2 6 -1.</_>
        <_>
          16 11 1 3 2.</_>
        <_>
          17 14 1 3 2.</_></rects>
      <tilted>0</tilted></_>
    <_>
      <rects>
        <_>
          16 15 1 2 -1.</_>
        <_>
          16 16 1 1 2.</_></rects>
      <tilted>0</tilted></_>
    <_>
      <rects>
        <_>
          17 1 6 20 -1.</_>
        <_>
          17 1 3 10 2.</_>
        <_>
          20 11 3 10 2.</_></rects>
      <tilted>0</tilted></_>
    <_>
      <rects>
        <_>
          17 5 3 1 -1.</_>
        <_>
          18 5 1 1 2.</_></rects>
      <tilted>0</tilted></_>
    <_>
      <rects>
        <_>
          18 0 6 19 -1.</_>
        <_>
          21 0 3 19 2.</_></rects>
      <tilted>0</tilted></_>
    <_>
      <rects>
        <_>
          18 5 6 3 -1.</_>
        <_>
          20 5 2 3 2.</_></rects>
      <tilted>0</tilted></_>
    <_>
      <rects>
        <_>
          18 6 2 10 -1.</_>
        <_>
          19 6 1 10 2.</_></rects>
      <tilted>0</tilted></_>
    <_>
      <rects>
        <_>
          18 6 2 3 -1.</_>
        <_>
          18 7 2 1 2.</_></rects>
      <tilted>0</tilted></_>
    <_>
      <rects>
        <_>
          19 0 4 6 -1.</_>
        <_>
          19 0 2 3 2.</_>
        <_>
          21 3 2 3 2.</_></rects>
      <tilted>0</tilted></_>
    <_>
      <rects>
        <_>
          19 3 2 1 -1.</_>
        <_>
          20 3 1 1 2.</_></rects>
      <tilted>0</tilted></_>
    <_>
      <rects>
        <_>
          19 3 4 8 -1.</_>
        <_>
          21 3 2 8 2.</_></rects>
      <tilted>0</tilted></_>
    <_>
      <rects>
        <_>
          19 9 4 14 -1.</_>
        <_>
          19 9 2 7 2.</_>
        <_>
          21 16 2 7 2.</_></rects>
      <tilted>0</tilted></_>
    <_>
      <rects>
        <_>
          19 11 4 7 -1.</_>
        <_>
          21 11 2 7 2.</_></rects>
      <tilted>0</tilted></_>
    <_>
      <rects>
        <_>
          20 1 4 11 -1.</_>
        <_>
          22 1 2 11 2.</_></rects>
      <tilted>0</tilted></_>
    <_>
      <rects>
        <_>
          20 3 4 8 -1.</_>
        <_>
          22 3 2 8 2.</_></rects>
      <tilted>0</tilted></_>
    <_>
      <rects>
        <_>
          20 4 4 5 -1.</_>
        <_>
          22 4 2 5 2.</_></rects>
      <tilted>0</tilted></_>
    <_>
      <rects>
        <_>
          20 5 2 3 -1.</_>
        <_>
          21 5 1 3 2.</_></rects>
      <tilted>0</tilted></_>
    <_>
      <rects>
        <_>
          20 7 2 1 -1.</_>
        <_>
          21 7 1 1 2.</_></rects>
      <tilted>0</tilted></_>
    <_>
      <rects>
        <_>
          21 6 2 17 -1.</_>
        <_>
          22 6 1 17 2.</_></rects>
      <tilted>0</tilted></_>
    <_>
      <rects>
        <_>
          21 13 1 10 -1.</_>
        <_>
          21 18 1 5 2.</_></rects>
      <tilted>0</tilted></_>
    <_>
      <rects>
        <_>
          21 21 2 2 -1.</_>
        <_>
          21 21 1 1 2.</_>
        <_>
          22 22 1 1 2.</_></rects>
      <tilted>0</tilted></_>
    <_>
      <rects>
        <_>
          22 5 2 2 -1.</_>
        <_>
          23 5 1 2 2.</_></rects>
      <tilted>0</tilted></_>
    <_>
      <rects>
        <_>
          22 16 2 4 -1.</_>
        <_>
          22 16 1 2 2.</_>
        <_>
          23 18 1 2 2.</_></rects>
      <tilted>0</tilted></_>
    <_>
      <rects>
        <_>
          22 16 2 2 -1.</_>
        <_>
          22 17 2 1 2.</_></rects>
      <tilted>0</tilted></_>
    <_>
      <rects>
        <_>
          22 17 2 2 -1.</_>
        <_>
          22 17 1 1 2.</_>
        <_>
          23 18 1 1 2.</_></rects>
      <tilted>0</tilted></_>
    <_>
      <rects>
        <_>
          23 10 1 2 -1.</_>
        <_>
          23 11 1 1 2.</_></rects>
      <tilted>0</tilted></_>
    <_>
      <rects>
        <_>
          23 11 1 2 -1.</_>
        <_>
          23 12 1 1 2.</_></rects>
      <tilted>0</tilted></_>
    <_>
      <rects>
        <_>
          23 12 1 2 -1.</_>
        <_>
          23 13 1 1 2.</_></rects>
      <tilted>0</tilted></_>
    <_>
      <rects>
        <_>
          23 14 1 2 -1.</_>
        <_>
          23 15 1 1 2.</_></rects>
      <tilted>0</tilted></_>
    <_>
      <rects>
        <_>
          23 15 1 6 -1.</_>
        <_>
          23 18 1 3 2.</_></rects>
      <tilted>0</tilted></_>
    <_>
      <rects>
        <_>
          23 16 1 2 -1.</_>
        <_>
          23 17 1 1 2.</_></rects>
      <tilted>0</tilted></_></features></cascade>
</opencv_storage>
